{"learner":{"attributes":{"scikit_learn":"{\"_estimator_type\": \"classifier\"}"},"feature_names":["chin_angle_1","chin_angle_2","cheek_bone_angle","ratio_1","ratio_2","ratio_3","ratio_4","ratio_5","ratio_6","n1","n2","n3","n4","n5","n6","n7","n8","n9","n10","n11"],"feature_types":["c","c","c","c","c","c","c","c","c","c","c","c","c","c","c","c","c","c","c","c"],"gradient_booster":{"model":{"gbtree_model_param":{"num_parallel_tree":"1","num_trees":"500"},"iteration_indptr":[0,5,10,15,20,25,30,35,40,45,50,55,60,65,70,75,80,85,90,95,100,105,110,115,120,125,130,135,140,145,150,155,160,165,170,175,180,185,190,195,200,205,210,215,220,225,230,235,240,245,250,255,260,265,270,275,280,285,290,295,300,305,310,315,320,325,330,335,340,345,350,355,360,365,370,375,380,385,390,395,400,405,410,415,420,425,430,435,440,445,450,455,460,465,470,475,480,485,490,495,500],"tree_info":[0,1,2,3,4,0,1,2,3,4,0,1,2,3,4,0,1,2,3,4,0,1,2,3,4,0,1,2,3,4,0,1,2,3,4,0,1,2,3,4,0,1,2,3,4,0,1,2,3,4,0,1,2,3,4,0,1,2,3,4,0,1,2,3,4,0,1,2,3,4,0,1,2,3,4,0,1,2,3,4,0,1,2,3,4,0,1,2,3,4,0,1,2,3,4,0,1,2,3,4,0,1,2,3,4,0,1,2,3,4,0,1,2,3,4,0,1,2,3,4,0,1,2,3,4,0,1,2,3,4,0,1,2,3,4,0,1,2,3,4,0,1,2,3,4,0,1,2,3,4,0,1,2,3,4,0,1,2,3,4,0,1,2,3,4,0,1,2,3,4,0,1,2,3,4,0,1,2,3,4,0,1,2,3,4,0,1,2,3,4,0,1,2,3,4,0,1,2,3,4,0,1,2,3,4,0,1,2,3,4,0,1,2,3,4,0,1,2,3,4,0,1,2,3,4,0,1,2,3,4,0,1,2,3,4,0,1,2,3,4,0,1,2,3,4,0,1,2,3,4,0,1,2,3,4,0,1,2,3,4,0,1,2,3,4,0,1,2,3,4,0,1,2,3,4,0,1,2,3,4,0,1,2,3,4,0,1,2,3,4,0,1,2,3,4,0,1,2,3,4,0,1,2,3,4,0,1,2,3,4,0,1,2,3,4,0,1,2,3,4,0,1,2,3,4,0,1,2,3,4,0,1,2,3,4,0,1,2,3,4,0,1,2,3,4,0,1,2,3,4,0,1,2,3,4,0,1,2,3,4,0,1,2,3,4,0,1,2,3,4,0,1,2,3,4,0,1,2,3,4,0,1,2,3,4,0,1,2,3,4,0,1,2,3,4,0,1,2,3,4,0,1,2,3,4,0,1,2,3,4,0,1,2,3,4,0,1,2,3,4,0,1,2,3,4,0,1,2,3,4,0,1,2,3,4,0,1,2,3,4,0,1,2,3,4,0,1,2,3,4,0,1,2,3,4,0,1,2,3,4,0,1,2,3,4,0,1,2,3,4,0,1,2,3,4,0,1,2,3,4,0,1,2,3,4,0,1,2,3,4,0,1,2,3,4,0,1,2,3,4],"trees":[{"base_weights":[2.484031E-2,-5.0445106E-2,1.8687329E-1,-4.6692606E-2,3.7572253E-1,-8.196721E-2,5.9829056E-1,2.9411763E-2,-3.954802E-2,2.710027E-3,1.4107883E-1],"categories":[0,1,2,3,4,5,6,7,8,9,10,11,12,13,14,15,16,17,18,19,20,21,22,23,24,25,26,27,28,29,30,31,32,33,0,1,2,3,4,5,6,7,8,9,10,11,12,13,14,15,16,17,18,19,20,21,22,23,24,25,26,27,28,0,1,2,3,4,5,6,7,8,9,10,12,13,14,0,1,2,3,4,5,6,7,8,9,10,12,13,14,15,16,17,18,19,20,21,22,0,1,2,3,4,5,6,7,8,9,10,11,12,13,14,15,16,17,18,19,20,21],"categories_nodes":[0,2,4,5,6],"categories_segments":[0,34,63,77,99],"categories_sizes":[34,29,14,22,22],"default_left":[1,0,1,0,1,1,1,0,0,0,0],"id":0,"left_children":[1,-1,3,-1,5,7,9,-1,-1,-1,-1],"loss_changes":[4.9278517E0,0E0,5.593277E0,0E0,3.5736427E0,1.5547892E0,1.0821493E1,0E0,0E0,0E0,0E0],"parents":[2147483647,0,0,2,2,4,4,5,5,6,6],"right_children":[2,-1,4,-1,6,8,10,-1,-1,-1,-1],"split_conditions":[NaN,-5.0445106E-2,NaN,-4.6692606E-2,NaN,NaN,NaN,2.9411763E-2,-3.954802E-2,2.710027E-3,1.4107883E-1],"split_indices":[4,0,3,0,7,7,4,0,0,0,0],"split_type":[1,0,1,0,1,1,1,0,0,0,0],"sum_hessian":[5.5360004E1,1.24800005E1,4.2880005E1,9.280001E0,3.3600002E1,1.1200001E1,2.2400002E1,5.1200004E0,6.0800004E0,1.3760001E1,8.64E0],"tree_param":{"num_deleted":"0","num_feature":"20","num_nodes":"11","size_leaf_vector":"1"}},{"base_weights":[9.861932E-3,-2.5691697E-1,1.2099644E-1,-7.42942E-3,-5.1863857E-2,-4.4715445E-2,4.8632216E-2],"categories":[0,1,2,3,4,5,6,7,8,9,10,11,12,13,14,15,16,17,18,19,20,21,22,23,24,25,26,27,28,29,30,31,32,33,34,35,36,37,38,39,40,41,42,43,44,45,46,47,48,49,50,51,52,53,54,55,56,57,58,0,1,2,3,4,5,6,7,8,9,10,11,12,13,14,15,16,17,18,19,20,21,0,1,2,3,4,5,6,7,8,9,10,11,12,13],"categories_nodes":[0,1,3],"categories_segments":[0,59,81],"categories_sizes":[59,22,14],"default_left":[1,1,0,1,0,0,0],"id":1,"left_children":[1,3,-1,5,-1,-1,-1],"loss_changes":[1.9789518E1,3.3001387E0,0E0,6.062196E0,0E0,0E0,0E0],"parents":[2147483647,0,0,1,1,3,3],"right_children":[2,4,-1,6,-1,-1,-1],"split_conditions":[NaN,NaN,1.2099644E-1,NaN,-5.1863857E-2,-4.4715445E-2,4.8632216E-2],"split_indices":[14,4,0,6,0,0,0],"split_type":[1,1,0,1,0,0,0],"sum_hessian":[5.9840004E1,4.9600002E1,1.0240001E1,2.5920002E1,2.3680002E1,1.3760001E1,1.2160001E1],"tree_param":{"num_deleted":"0","num_feature":"20","num_nodes":"7","size_leaf_vector":"1"}},{"base_weights":[-3.3046925E-3,7.82241E-1,-3.5211265E-1,1.5384614E-1,-2.222222E-2,4.575163E-2,-4.7491994E-2],"categories":[0,1,2,3,4,5,6,7,8,9,10,11,12,13,14,15,16,17,18,19,20,21,22,23,24,25,26,27,28,29,30,31,0,1,2,3,4,5,6,7,8,9,10,11,0,1,2,3,4,5,6,7,8,9,10,11,12,13,14,15,16,17,18,19,20,21,22,23,24,25,26,27,28,29,30,31,32,33,34,35,36,37,38,39,40,41,42,43,44,45,46,47,48,49,50,51,52,53,54,55,56,57,58,59,60,61,62,63,64,65,66,67,68,69,70,71,72,73,74,75,76,77,78,79,80,81,82,83,84,85,86,87,88,89,90,91,92,93,94,95,96,97,98,99,100,101,102,103,104,105,106,107,108,109,110,111,112,113,114,115,116,117,118,119,120,121,122,123,124,125,126,127,128,129,130,131,132,133,134,135,136,137,138,139,140,141,142,143,144,145,146,147,148,149,150,151,152,153,154,155,156,157,158,159,160,161,162,163,164,165,166,167,168,169,170,171,172,173,174,175,176,177,178,179,180,181,182,183,184,185,186,187,188,189,190,191,192,193,194,195,196,197,198,199,200,201,202,203,204,205,206,207,208,209,210,211,212,213,214,215,216,217,218,219,220,221,222,223,224,225,226,227,228,229,230,231,232,233,234,235,236,237,238,239,240,241,242,243,244,245,246,247,248,249,250,251,252,253,254,255,256,257,258,259,260,261,262,263,264,265,266,267,268,269,270,271,272,273,274,275,276,277,278,279,280,281,282,283,284,285,286,287,288,289,290,291,292,293,294,295,296,297,298,299,300,301,302,303,304,305,306,307,308,309,310,311,312,313,314,315,316,317,318,319,320,321,322,323,324,325,326,327,328,329],"categories_nodes":[0,1,2],"categories_segments":[0,32,44],"categories_sizes":[32,12,330],"default_left":[1,1,0,0,0,0,0],"id":2,"left_children":[1,3,5,-1,-1,-1,-1],"loss_changes":[1.6858194E1,1.4713431E1,4.4529305E0,0E0,0E0,0E0,0E0],"parents":[2147483647,0,0,1,1,2,2],"right_children":[2,4,6,-1,-1,-1,-1],"split_conditions":[NaN,NaN,NaN,1.5384614E-1,-2.222222E-2,4.575163E-2,-4.7491994E-2],"split_indices":[4,6,19,0,0,0,0],"split_type":[1,1,1,0,0,0,0],"sum_hessian":[5.9520004E1,1.7920002E1,4.1600002E1,9.920001E0,8.000001E0,5.1200004E0,3.6480003E1],"tree_param":{"num_deleted":"0","num_feature":"20","num_nodes":"7","size_leaf_vector":"1"}},{"base_weights":[-3.2362457E-2,1.4150943E-1,-3.2567048E-1,-4.2056072E-1,4.575163E-2,-5.3050397E-3,-5.757576E-2],"categories":[0,1,2,3,4,5,6,7,8,9,10,11,12,13,14,15,16,17,18,19,20,21,22,23,24,25,26,27,28,29,30,31,32,33,34,35,36,37,38,39,40,41,42,43,44,45,46,47,48,49,50,51,52,53,54,55,56,57,58,59,60,61,62,63,64,65,66,67,68,69,70,71,72,73,74,75,76,77,78,79,80,81,82,83,84,85,86,87,88,89,90,91,92,93,94,95,96,97,98,99,100,101,102,103,104,105,106,107,108,109,110,111,112,113,114,115,116,117,118,119,120,121,122,123,124,125,126,127,128,129,130,131,132,133,134,135,136,137,138,139,140,141,142,143,144,145,146,147,148,149,150,151,152,153,154,155,156,157,158,159,160,161,162,163,164,165,166,167,168,169,170,171,172,173,174,175,176,177,178,179,180,181,182,183,184,185,186,187,188,189,190,191,192,193,194,195,196,197,198,199,200,201,202,203,204,205,206,207,208,209,210,211,212,213,214,215,216,217,218,219,220,221,222,223,224,225,226,227,228,229,230,231,232,233,234,235,236,237,238,239,240,241,242,243,244,245,246,247,248,249,250,251,252,253,254,255,256,257,258,259,260,261,262,263,264,265,266,267,268,269,270,271,272,273,274,275,276,277,278,279,280,281,282,283,284,285,286,287,288,289,290,291,292,293,294,295,296,297,298,299,300,301,302,303,304,305,306,307,308,309,310,311,312,313,314,315,316,317,318,319,320,321,322,323,324,0,1,2,3,4,5,6,7,8,9,10,11,12,13,14,15,16,17,18,19,20,21,22,23,24,25,26,27,28,29,30,31,32,33,34,35,36,37,38,39,40,41,42,43,0,1,2,3,4,5,6,7,8,9,10,11],"categories_nodes":[0,2,3],"categories_segments":[0,325,369],"categories_sizes":[325,44,12],"default_left":[0,0,1,1,0,0,0],"id":3,"left_children":[1,-1,3,5,-1,-1,-1],"loss_changes":[2.6698088E1,0E0,4.0717506E0,2.6547308E0,0E0,0E0,0E0],"parents":[2147483647,0,0,2,2,3,3],"right_children":[2,-1,4,6,-1,-1,-1],"split_conditions":[NaN,1.4150943E-1,NaN,NaN,4.575163E-2,-5.3050397E-3,-5.757576E-2],"split_indices":[13,0,11,7,0,0,0],"split_type":[1,0,1,1,0,0,0],"sum_hessian":[6.0800003E1,9.6E0,5.1200005E1,4.608E1,5.1200004E0,1.4080001E1,3.2000004E1],"tree_param":{"num_deleted":"0","num_feature":"20","num_nodes":"7","size_leaf_vector":"1"}},{"base_weights":[7.017543E-2,1.3354038E-1,-8.921644E-2,4.1114056E-1,-2.8815368E-1,6.224066E-3,8.695652E-2,-4.3999996E-2,1.4836795E-3],"categories":[0,1,2,3,4,5,6,7,8,9,10,11,12,13,14,15,16,17,18,19,20,21,22,23,24,25,26,27,28,29,30,31,32,33,34,35,36,37,38,39,40,41,42,43,44,45,46,47,48,49,50,51,52,53,54,55,56,57,58,59,60,61,62,63,64,65,66,67,68,69,70,71,72,73,74,75,76,77,78,79,80,81,82,83,84,85,86,87,88,89,90,91,92,93,94,95,96,97,98,99,100,101,102,103,104,105,106,107,108,109,110,111,112,113,114,115,116,117,118,119,120,121,122,123,124,125,126,127,128,129,130,131,132,133,134,135,136,137,138,139,140,141,142,143,144,145,146,147,148,149,150,151,152,153,154,155,156,157,158,159,160,161,162,163,164,165,166,167,168,169,170,171,172,173,174,175,176,177,178,179,180,181,182,183,184,185,186,187,188,189,190,191,192,193,194,195,196,197,198,199,200,201,202,203,204,205,206,207,208,209,210,211,212,213,214,215,216,217,218,219,220,221,222,223,224,225,226,227,228,229,230,231,232,233,234,235,236,237,238,239,240,241,242,243,244,245,246,247,248,249,250,251,252,253,254,255,256,257,258,259,260,261,262,263,264,265,266,267,268,269,270,271,272,273,274,275,276,277,278,279,280,281,282,283,284,285,286,287,288,289,290,291,292,293,294,295,296,297,298,299,300,301,302,303,304,305,306,307,308,309,310,311,312,313,314,315,316,317,318,319,320,321,322,323,324,325,326,327,328,329,330,331,332,333,334,335,336,337,338,339,340,341,342,343,344,345,0,1,2,3,4,5,6,7,8,9,10,12,13,14,16,0,1,2,3,4,5,6,7,8,9,10,11,12,13,0,1,2,3,4,5,6,7,8,9,10,11,12,13,14,15,16,17,18,19,20,21],"categories_nodes":[0,2,3,4],"categories_segments":[0,346,361,375],"categories_sizes":[346,15,14,22],"default_left":[0,0,1,1,1,0,0,0,0],"id":4,"left_children":[1,-1,3,5,7,-1,-1,-1,-1],"loss_changes":[1.1614165E1,0E0,5.2507353E0,2.357838E0,1.7309074E0,0E0,0E0,0E0,0E0],"parents":[2147483647,0,0,2,2,3,3,4,4],"right_children":[2,-1,4,6,8,-1,-1,-1,-1],"split_conditions":[NaN,1.3354038E-1,NaN,NaN,NaN,6.224066E-3,8.695652E-2,-4.3999996E-2,1.4836795E-3],"split_indices":[14,0,8,4,4,0,0,0,0],"split_type":[1,0,1,1,1,0,0,0,0],"sum_hessian":[5.6000004E1,5.4400005E0,5.0560005E1,1.4080001E1,3.6480003E1,8.64E0,5.4400005E0,2.4000002E1,1.24800005E1],"tree_param":{"num_deleted":"0","num_feature":"20","num_nodes":"9","size_leaf_vector":"1"}},{"base_weights":[-1.6954964E-2,-5.1096816E-2,1.6586933E-1,3.397641E-1,-5.460163E-2,-5.194167E-2,5.0936675E-1,-3.7346985E-2,7.2575286E-2],"categories":[0,1,2,3,4,5,6,7,8,9,10,11,12,13,14,15,16,17,18,19,20,21,22,23,24,25,26,27,28,29,30,31,32,33,0,1,2,3,4,5,6,7,8,9,10,11,12,13,14,15,16,17,18,19,20,21,22,23,24,25,26,27,28,29,30,31,32,33,34,35,36,37,38,39,40,41,42,43,44,45,46,47,48,49,50,51,52,53,54,55,56,0,1,2,3,4,5,6,7,8,9,10,11,12,13,14,15,16,17,18,19,20,21,22,23,24,25,26,27,28,29,30,31,32,33,34,35,36,37,38,39,40,41,42,43,44,45,46,47,48,49,50,51,52,53,54,55,56,57,58,59,60,61,62,63,64,65,66,67,68,69,70,71,72,73,74,75,76,77,78,79,80,81,82,83,84,85,86,87,88,89,90,91,92,93,94,95,96,97,98,99,100,101,102,103,104,105,106,107,108,109,110,111,112,113,114,115,116,117,118,119,120,121,122,123,124,125,126,127,128,129,130,131,132,133,134,135,136,137,138,139,140,141,142,143,144,145,146,147,148,149,150,151,152,153,154,155,156,157,158,159,160,161,162,163,164,165,166,167,168,169,170,171,172,173,174,175,176,177,178,179,180,181,182,183,184,185,186,187,188,189,190,191,192,193,194,195,196,197,198,199,200,201,202,203,204,205,206,207,208,209,210,211,212,213,214,215,216,217,218,219,220,221,222,223,224,225,226,227,228,229,230,231,232,233,234,235,236,237,238,239,240,241,242,243,244,245,246,247,248,249,250,251,252,253,254,255,256,257,258,259,260,261,262,263,264,265,266,267,268,269,270,271,272,273,274,275,276,277,278,279,280,281,282,283,284,285,286,287,288,289,290,291,292,293,294,295,296,297,298,299,300,301,302,303,304,305,306,307,308,309,310,311,312,313,314,315,316,317,318,319,320,321,322,323,324,325,326,327,0,1,2,3,4,5,6,7,8,9,10,11,12,13,14,15,16,17,18,19,20,21,22,23,24,25,26,27,28,29,30,31,32,33,34,35,36,37,38,39,40,41,42,43,44,45,46,47,48,49,50,51,52,53,54,55,56,57,58,59,60,61,62,63,64,65,66,67,68,69,70,71,72,73,74,75,76,77,78,79,80,81,82,83,84,85,86,87,88,89,90,91,92,93,94,95,96,97,98,99,100,101,102,103,104,105,106,107,108,109,110,111,112,113,114,115,116,117,118,119,120,121,122,123,124,125,126,127,128,129,130,131,132,133,134,135,136,137,138,139,140,141,142,143,144,145,146,147,148,149,150,151,152,153,154,155,156,157,158,159,160,161,162,163,164,165,166,167,168,169,170,171,172,173,174,175,176,177,178,179,180,181,182,183,184,185,186,187,188,189,190,191,192,193,194,195,196,197,198,199,200,201,202,203,204,205,206,207,208,209,210,211,212,213,214,215,216,217,218,219,220,221,222,223,224,225,226,227,228,229,230,231,232,233,234,235,236,237,238,239,240,241,242,243,244,245,246,247,248,249,250,251,252,253,254,255,256,257,258,259,260,261,262,263,264,265,266,267,268,269,270,271,272,273,274,275,276,277,278,279,280,281,282,283,284,285,286,287,288,289,290,291,292,293,294,295,296,297,298,299,300,301,302,303,304,305,306,307,308,309,310,311,312,313,314,315,316,317,318,319,320,321,322,323,324,325,326,327,328,329,330,331,332,333,334,335],"categories_nodes":[0,2,3,6],"categories_segments":[0,34,91,419],"categories_sizes":[34,57,328,336],"default_left":[1,0,1,0,0,0,0,0,0],"id":5,"left_children":[1,-1,3,5,-1,-1,7,-1,-1],"loss_changes":[5.076405E0,0E0,5.272675E0,5.167E0,0E0,0E0,5.7348986E0,0E0,0E0],"parents":[2147483647,0,0,2,2,3,3,6,6],"right_children":[2,-1,4,6,-1,-1,8,-1,-1],"split_conditions":[NaN,-5.1096816E-2,NaN,NaN,-5.460163E-2,-5.194167E-2,NaN,-3.7346985E-2,7.2575286E-2],"split_indices":[4,0,11,15,0,0,16,0,0],"split_type":[1,0,1,1,0,0,1,0,0],"sum_hessian":[5.4267746E1,1.4173739E1,4.0094006E1,3.264293E1,7.4510756E0,5.041405E0,2.7601526E1,5.290559E0,2.2310966E1],"tree_param":{"num_deleted":"0","num_feature":"20","num_nodes":"9","size_leaf_vector":"1"}},{"base_weights":[2.8304797E-2,-2.4213596E-1,1.1193446E-1,6.1060186E-2,-3.5975724E-2],"categories":[0,1,2,3,4,5,6,7,8,9,10,11,12,13,14,15,16,17,18,19,20,21,22,23,24,25,26,27,28,29,30,31,32,33,34,35,36,37,38,39,40,41,42,43,44,45,46,47,48,49,50,51,52,53,54,55,56,57,58,59,60,61,62,0,1,2,3,4,5,6,7,8,9,10,11,12,13,14,15,16,17,18,19,20,21,22,23,24,25,26,27,28,29,30,31,32,33,34,35,36,37,38,39,40,41,42,43,44,45,46,47,48,49,50,51,52,53,54,55,56,57,58,59,60,61,62,63,64,65,66,67,68,69,70,71,72,73,74,75,76,77,78,79,80,81,82,83,84,85,86,87,88,89,90,91,92,93,94,95,96,97,98,99,100,101,102,103,104,105,106,107,108,109,110,111,112,113,114,115,116,117,118,119,120,121,122,123,124,125,126,127,128,129,130,131,132,133,134,135,136,137,138,139,140,141,142,143,144,145,146,147,148,149,150,151,152,153,154,155,156,157,158,159,160,161,162,163,164,165,166,167,168,169,170,171,172,173,174,175,176,177,178,179,180,181,182,183,184,185,186,187,188,189,190,191,192,193,194,195,196,197,198,199,200,201,202,203,204,205,206,207,208,209,210,211,212,213,214,215,216,217,218,219,220,221,222,223,224,225,226,227,228,229,230,231,232,233,234,235,236,237,238,239,240,241,242,243,244,245,246,247,248,249,250,251,252,253,254,255,256,257,258,259,260,261,262,263,264,265,266,267,268,269,270,271,272,273,274,275,276,277,278,279,280,281,282,283,284,285,286,287,288,289,290,291,292,293,294,295,296,297,298,299,300,301,302,303,304,305,306,307,308,309,310,311,312,313,314,315,316,317,318,319,320,321,322,323,324,325,326,327,328,329,330,331,332,333,334,335],"categories_nodes":[0,1],"categories_segments":[0,63],"categories_sizes":[63,336],"default_left":[1,0,0,0,0],"id":6,"left_children":[1,3,-1,-1,-1],"loss_changes":[1.9938114E1,5.6595755E0,0E0,0E0,0E0],"parents":[2147483647,0,0,1,1],"right_children":[2,4,-1,-1,-1],"split_conditions":[NaN,NaN,1.1193446E-1,6.1060186E-2,-3.5975724E-2],"split_indices":[14,17,0,0,0],"split_type":[1,1,0,0,0],"sum_hessian":[6.565414E1,5.3236294E1,1.2417841E1,5.944955E0,4.729134E1],"tree_param":{"num_deleted":"0","num_feature":"20","num_nodes":"5","size_leaf_vector":"1"}},{"base_weights":[-5.6280736E-2,9.550264E-1,-4.195818E-2,-2.5168909E-2,1.7544462E-1],"categories":[0,1,2,3,4,5,6,7,8,9,10,11,12,13,14,0,1,2,3,4,5,6,7,8,9,10,11],"categories_nodes":[0,1],"categories_segments":[0,15],"categories_sizes":[15,12],"default_left":[1,1,0,0,0],"id":7,"left_children":[1,3,-1,-1,-1],"loss_changes":[2.1474445E1,1.5359797E1,0E0,0E0,0E0],"parents":[2147483647,0,0,1,1],"right_children":[2,4,-1,-1,-1],"split_conditions":[NaN,NaN,-4.195818E-2,-2.5168909E-2,1.7544462E-1],"split_indices":[6,7,0,0,0],"split_type":[1,1,0,0,0],"sum_hessian":[5.635771E1,1.4464551E1,4.1893158E1,6.0369706E0,8.427581E0],"tree_param":{"num_deleted":"0","num_feature":"20","num_nodes":"5","size_leaf_vector":"1"}},{"base_weights":[-3.1535726E-2,9.061312E-1,-3.626443E-1,1.4675464E-1,4.7282156E-2,3.256756E-2,-5.2124716E-2],"categories":[0,1,2,3,4,5,6,7,8,9,10,11,12,13,14,0,1,2,3,4,5,6,7,8,9,10,11,12,13,14,15,16,17,18,19,20,21,22,23,24,25,26,27,0,1,2,3,4,5,6,7,8,9,10,11,12,13,14,15,16,17,18,19,20,21,22,23,24,25,26],"categories_nodes":[0,1,2],"categories_segments":[0,15,43],"categories_sizes":[15,28,27],"default_left":[1,1,1,0,0,0,0],"id":8,"left_children":[1,3,5,-1,-1,-1,-1],"loss_changes":[1.8958548E1,3.1850796E0,5.088975E0,0E0,0E0,0E0,0E0],"parents":[2147483647,0,0,1,1,2,2],"right_children":[2,4,6,-1,-1,-1,-1],"split_conditions":[NaN,NaN,NaN,1.4675464E-1,4.7282156E-2,3.256756E-2,-5.2124716E-2],"split_indices":[7,3,3,0,0,0,0],"split_type":[1,1,1,0,0,0,0],"sum_hessian":[5.90057E1,1.4945332E1,4.4060368E1,5.470578E0,9.474753E0,8.053894E0,3.6006474E1],"tree_param":{"num_deleted":"0","num_feature":"20","num_nodes":"7","size_leaf_vector":"1"}},{"base_weights":[-4.5013484E-3,1.05636E-1,-1.1856525E-1,-1.9784898E-1,5.5956494E-2,-8.277461E-2,-5.0732374E-2,3.6157859E-3,-5.4568995E-2],"categories":[0,1,2,3,4,5,6,7,8,9,10,11,12,13,14,15,16,17,18,19,20,21,22,23,24,25,26,27,28,29,30,31,32,33,34,35,36,37,38,39,40,41,42,43,44,45,46,47,48,49,50,51,52,53,54,55,56,57,58,59,60,61,62,63,64,65,66,67,68,69,70,71,72,73,74,75,76,77,78,79,80,81,82,83,84,85,86,87,88,89,90,91,92,93,94,95,96,97,98,99,100,101,102,103,104,105,106,107,108,109,110,111,112,113,114,115,116,117,118,119,120,121,122,123,124,125,126,127,128,129,130,131,132,133,134,135,136,137,138,139,140,141,142,143,144,145,146,147,148,149,150,151,152,153,154,155,156,157,158,159,160,161,162,163,164,165,166,167,168,169,170,171,172,173,174,175,176,177,178,179,180,181,182,183,184,185,186,187,188,189,190,191,192,193,194,195,196,197,198,199,200,201,202,203,204,205,206,207,208,209,210,211,212,213,214,215,216,217,218,219,220,221,222,223,224,225,226,227,228,229,230,231,232,233,234,235,236,237,238,239,240,241,242,243,244,245,246,247,248,249,250,251,252,253,254,255,256,257,258,259,260,261,262,263,264,265,266,267,268,269,270,271,272,273,274,275,276,277,278,279,280,281,282,283,284,285,286,287,288,289,290,291,292,293,294,295,296,297,298,299,300,301,302,303,304,305,306,307,308,309,310,311,312,313,314,315,316,317,318,319,320,321,322,323,324,325,326,327,328,329,330,331,332,333,334,335,336,337,338,339,340,341,342,343,344,345,346,0,1,2,3,4,5,6,7,8,9,10,11,12,13,14,15,16,17,18,19,20,21,22,23,24,25,26,27,28,29,30,31,32,33,34,35,36,37,38,39,40,41,42,43,0,1,2,3,4,5,6,7,8,9,10,11,12,13,14,15,16,17,18,19,20,21,22,23,24,25,26,27,28,29,30,31,32,33,34,35,36,37,38,39,40,41,42,43,44,45,46,47,48,49,50,51,52,53,54,55,56,57,58,59,60,61,62,0,1,2,3,4,5,6,7,8,9,10,11],"categories_nodes":[0,2,3,5],"categories_segments":[0,347,391,454],"categories_sizes":[347,44,63,12],"default_left":[0,0,1,1,0,1,0,0,0],"id":9,"left_children":[1,-1,3,5,-1,7,-1,-1,-1],"loss_changes":[7.8434753E0,0E0,3.2554426E0,1.8492801E0,0E0,2.2168465E0,0E0,0E0,0E0],"parents":[2147483647,0,0,2,2,3,3,5,5],"right_children":[2,-1,4,6,-1,8,-1,-1,-1],"split_conditions":[NaN,1.05636E-1,NaN,NaN,5.5956494E-2,NaN,-5.0732374E-2,3.6157859E-3,-5.4568995E-2],"split_indices":[15,0,12,1,0,3,0,0,0],"split_type":[1,0,1,1,0,1,0,0,0],"sum_hessian":[6.278385E1,5.293166E0,5.7490685E1,5.2106846E1,5.383839E0,3.8907166E1,1.319968E1,3.1687809E1,7.219358E0],"tree_param":{"num_deleted":"0","num_feature":"20","num_nodes":"9","size_leaf_vector":"1"}},{"base_weights":[-1.4260785E-1,3.2015505E-1,-3.9241664E-2,-3.0234108E-2,6.707805E-2],"categories":[0,1,2,3,4,5,6,7,8,10,12,14,15,16,17,18,19,20,21,22,0,1,2,3,4,5,6,7,8,9,10,11,12,13,14,15,16,17,18,19,20,21,22],"categories_nodes":[0,1],"categories_segments":[0,20],"categories_sizes":[20,23],"default_left":[1,1,0,0,0],"id":10,"left_children":[1,3,-1,-1,-1],"loss_changes":[6.7016916E0,4.6757E0,0E0,0E0,0E0],"parents":[2147483647,0,0,1,1],"right_children":[2,4,-1,-1,-1],"split_conditions":[NaN,NaN,-3.9241664E-2,-3.0234108E-2,6.707805E-2],"split_indices":[7,4,0,0,0],"split_type":[1,1,0,0,0],"sum_hessian":[5.5885212E1,1.9493156E1,3.639206E1,7.073196E0,1.241996E1],"tree_param":{"num_deleted":"0","num_feature":"20","num_nodes":"5","size_leaf_vector":"1"}},{"base_weights":[-5.143075E-2,-2.3894444E-1,9.255892E-2,-3.6544374E-1,6.979009E-2,-4.5522053E-2,2.9467497E-2],"categories":[0,1,2,3,4,5,6,7,8,9,10,11,12,13,14,15,16,17,18,19,20,21,22,23,24,25,26,27,28,29,30,31,32,33,34,35,36,37,38,39,40,41,42,43,44,45,46,47,48,49,50,51,52,53,54,55,56,57,58,59,60,61,62,0,1,2,3,4,5,6,7,8,9,10,11,12,13,14,15,16,17,18,19,20,21,22,23,24,25,26,27,28,29,30,31,32,33,34,35,36,37,38,39,40,41,42,0,1,2,3,4,5,6,7,8,9,10,11,12,13,14,15,16,17,18,19,20,21,22,23,24,25,26,27,28,29,30,31,32,33,34,35,36,37,38],"categories_nodes":[0,1,3],"categories_segments":[0,63,106],"categories_sizes":[63,43,39],"default_left":[1,1,0,1,0,0,0],"id":11,"left_children":[1,3,-1,5,-1,-1,-1],"loss_changes":[1.1262266E1,6.3413982E0,0E0,2.854559E0,0E0,0E0,0E0],"parents":[2147483647,0,0,1,1,3,3],"right_children":[2,4,-1,6,-1,-1,-1],"split_conditions":[NaN,NaN,9.255892E-2,NaN,6.979009E-2,-4.5522053E-2,2.9467497E-2],"split_indices":[13,9,0,2,0,0,0],"split_type":[1,1,0,1,0,0,0],"sum_hessian":[5.926651E1,5.0357185E1,8.909323E0,4.4903877E1,5.453309E0,3.980126E1,5.1026144E0],"tree_param":{"num_deleted":"0","num_feature":"20","num_nodes":"7","size_leaf_vector":"1"}},{"base_weights":[2.5977166E-3,5.478907E-1,-3.6333504E-1,-2.7540509E-2,8.4638464E-1,1.4016889E-2,-4.454424E-2,1.10265076E-1,1.9925622E-2],"categories":[0,1,2,3,4,5,6,7,8,9,10,11,12,13,14,15,16,17,18,19,20,21,22,23,24,25,26,27,28,29,0,1,2,3,4,5,6,7,8,9,10,11,12,13,14,15,16,17,18,19,20,21,22,23,24,25,26,27,28,29,30,31,32,33,34,35,0,1,2,3,4,5,6,7,8,9,10,11,12,13,14,15,16,17,18,19,20,21,22,23,24,25,26,27,28,29,30,31,32,33,34,0,1,2,3,4,5,6,7,8,9,10,11,12,13,14,15,16,17],"categories_nodes":[0,1,2,4],"categories_segments":[0,30,66,101],"categories_sizes":[30,36,35,18],"default_left":[1,1,1,0,1,0,0,0,0],"id":12,"left_children":[1,3,5,-1,7,-1,-1,-1,-1],"loss_changes":[1.2746673E1,6.536865E0,1.6429677E0,0E0,2.9430199E0,0E0,0E0,0E0,0E0],"parents":[2147483647,0,0,1,1,2,2,4,4],"right_children":[2,4,6,-1,8,-1,-1,-1,-1],"split_conditions":[NaN,NaN,NaN,-2.7540509E-2,NaN,1.4016889E-2,-4.454424E-2,1.10265076E-1,1.9925622E-2],"split_indices":[4,5,5,0,5,0,0,0,0],"split_type":[1,1,1,0,1,0,0,0,0],"sum_hessian":[6.188247E1,2.4651262E1,3.723121E1,6.5799685E0,1.8071295E1,5.120963E0,3.2110245E1,1.2440772E1,5.630522E0],"tree_param":{"num_deleted":"0","num_feature":"20","num_nodes":"9","size_leaf_vector":"1"}},{"base_weights":[-4.7733348E-2,7.7425934E-2,-2.6309353E-1,-3.869043E-2,2.2295935E-2],"categories":[0,1,2,3,4,5,6,7,8,9,10,11,12,13,14,0,1,2,3,4,5,6,7,8,9,10,11,12,13,14,15,16,17],"categories_nodes":[0,2],"categories_segments":[0,15],"categories_sizes":[15,18],"default_left":[1,0,1,0,0],"id":13,"left_children":[1,-1,3,-1,-1],"loss_changes":[1.0541846E1,0E0,2.9159696E0,0E0,0E0],"parents":[2147483647,0,0,2,2],"right_children":[2,-1,4,-1,-1],"split_conditions":[NaN,7.7425934E-2,NaN,-3.869043E-2,2.2295935E-2],"split_indices":[7,0,4,0,0],"split_type":[1,0,1,0,0],"sum_hessian":[5.7399506E1,1.1377681E1,4.6021828E1,3.6841335E1,9.1804905E0],"tree_param":{"num_deleted":"0","num_feature":"20","num_nodes":"5","size_leaf_vector":"1"}},{"base_weights":[3.1675592E-3,4.093396E-1,-3.9134078E-2,1.4980765E-1,9.16033E-2,8.013121E-2,-1.5547474E-2],"categories":[0,1,2,3,4,5,6,7,8,9,10,15,0,1,2,3,4,5,6,7,8,9,0,1,2,3,4,5,6,7,8,9,10,11,12,13,14,15,16,17,18,19,20,21,22,23,24,25,26,27,28,29,30,31,32,33,34,35,36,37,38,39,40,41,42,43,44,45,46,47,48,49,50,51,52,53,54,55,56,57,58,59,60,61,62,63,64,65,66,67,68,69,70,71,72,73,74,75,76,77,78,79,80,81,82,83,84,85,86,87,88,89,90,91,92,93,94,95,96,97,98,99,100,101,102,103,104,105,106,107,108,109,110,111,112,113,114,115,116,117,118,119,120,121,122,123,124,125,126,127,128,129,130,131,132,133,134,135,136,137,138,139,140,141,142,143,144,145,146,147,148,149,150,151,152,153,154,155,156,157,158,159,160,161,162,163,164,165,166,167,168,169,170,171,172,173,174,175,176,177,178,179,180,181,182,183,184,185,186,187,188,189,190,191,192,193,194,195,196,197,198,199,200,201,202,203,204,205,206,207,208,209,210,211,212,213,214,215,216,217,218,219,220,221,222,223,224,225,226,227,228,229,230,231,232,233,234,235,236,237,238,239,240,241,242,243,244,245,246,247,248,249,250,251,252,253,254,255,256,257,258,259,260,261,262,263,264,265,266,267,268,269,270,271,272,273,274,275,276,277,278,279,280,281,282,283,284,285,286,287,288,289,290,291,292,293,294,295,296,297,298,299,300,301,302,303,304,305,306,307,308,309,310,311,312,313,314,315,316,317,318,319,320,321,322,323,324,325,326,327,328,329,330,331,332],"categories_nodes":[0,1,3],"categories_segments":[0,12,22],"categories_sizes":[12,10,333],"default_left":[1,1,0,0,0,0,0],"id":14,"left_children":[1,3,-1,5,-1,-1,-1],"loss_changes":[1.047901E1,4.0995493E0,0E0,4.5998416E0,0E0,0E0,0E0],"parents":[2147483647,0,0,1,1,3,3],"right_children":[2,4,-1,6,-1,-1,-1],"split_conditions":[NaN,NaN,-3.9134078E-2,NaN,9.16033E-2,8.013121E-2,-1.5547474E-2],"split_indices":[7,6,0,14,0,0,0],"split_type":[1,1,0,1,0,0,0],"sum_hessian":[6.3396725E1,3.1218079E1,3.2178642E1,2.1500849E1,9.717231E0,6.341852E0,1.5158997E1],"tree_param":{"num_deleted":"0","num_feature":"20","num_nodes":"7","size_leaf_vector":"1"}},{"base_weights":[9.688814E-2,5.371618E-1,-1.3353874E-1,7.247844E-1,2.9551676E-3,-2.9205132E-2,3.4073375E-2,2.1459246E-2,1.0921037E-1],"categories":[0,1,2,3,4,5,6,7,8,9,10,11,12,16,17,18,19,20,21,22,23,24,25,0,1,2,3,4,5,6,7,8,9,10,11,12,13,14,15,0,1,2,3,4,5,6,7,8,9,10,11,12,13,14,15,16,17,18,19,20,21,22,23,24,25,26,27,28,29,30,31,32,33,34,35,36,37,38,39,40,41,42,43,44,45,46,47,48,49,50,51,52,53,54,55,56,57,58,59,60,0,1,2,3,4,5,6,7,8,9,10,11,12],"categories_nodes":[0,1,2,3],"categories_segments":[0,23,39,100],"categories_sizes":[23,16,61,13],"default_left":[1,1,1,1,0,0,0,0,0],"id":15,"left_children":[1,3,5,7,-1,-1,-1,-1,-1],"loss_changes":[6.4590445E0,2.0576138E0,3.2667701E0,2.7445965E0,0E0,0E0,0E0,0E0,0E0],"parents":[2147483647,0,0,1,1,2,2,3,3],"right_children":[2,4,6,8,-1,-1,-1,-1,-1],"split_conditions":[NaN,NaN,NaN,NaN,2.9551676E-3,-2.9205132E-2,3.4073375E-2,2.1459246E-2,1.0921037E-1],"split_indices":[8,5,0,7,0,0,0,0,0],"split_type":[1,1,1,1,0,0,0,0,0],"sum_hessian":[6.1959644E1,2.082961E1,4.113003E1,1.4895945E1,5.933666E0,3.1114931E1,1.0015101E1,6.8984647E0,7.99748E0],"tree_param":{"num_deleted":"0","num_feature":"20","num_nodes":"9","size_leaf_vector":"1"}},{"base_weights":[1.1345998E-2,-2.4844643E-1,1.02979265E-1,4.3264885E-2,-3.4168288E-2],"categories":[0,1,2,3,4,5,6,7,8,9,10,11,12,13,14,15,16,17,18,19,20,21,22,23,24,25,26,27,28,29,30,31,32,33,34,35,36,37,38,39,40,41,42,43,44,45,46,47,48,49,50,51,52,0,1,2,3,4,5,6,7,8,9,10,11,12,13,14,15,16,17,18,19,20,21,22,23,24,25,26,27,28,29,30,31,32,33,34,35,36,37,38,39,40,41,42,43,44,45,46,47,48,49,50,51,52,53,54,55,56,57,58,59,60,61,62,63,64,65,66,67,68,69,70,71,72,73,74,75,76,77,78,79,80,81,82,83,84,85,86,87,88,89,90,91,92,93,94,95,96,97,98,99,100,101,102,103,104,105,106,107,108,109,110,111,112,113,114,115,116,117,118,119,120,121,122,123,124,125,126,127,128,129,130,131,132,133,134,135,136,137,138,139,140,141,142,143,144,145,146,147,148,149,150,151,152,153,154,155,156,157,158,159,160,161,162,163,164,165,166,167,168,169,170,171,172,173,174,175,176,177,178,179,180,181,182,183,184,185,186,187,188,189,190,191,192,193,194,195,196,197,198,199,200,201,202,203,204,205,206,207,208,209,210,211,212,213,214,215,216,217,218,219,220,221,222,223,224,225,226,227,228,229,230,231,232,233,234,235,236,237,238,239,240,241,242,243,244,245,246,247,248,249,250,251,252,253,254,255,256,257,258,259,260,261,262,263,264,265,266,267,268,269,270,271,272,273,274,275,276,277,278,279,280,281,282,283,284,285,286,287,288,289,290,291,292,293,294,295,296,297,298,299,300,301,302,303,304,305,306,307,308,309,310,311,312,313,314,315,316,317,318,319,320,321,322,323,324,325,326,327,328,329,330,331,332,333,334,335,336,337,338],"categories_nodes":[0,1],"categories_segments":[0,53],"categories_sizes":[53,339],"default_left":[1,0,0,0,0],"id":16,"left_children":[1,3,-1,-1,-1],"loss_changes":[1.5766579E1,3.1650984E0,0E0,0E0,0E0],"parents":[2147483647,0,0,1,1],"right_children":[2,4,-1,-1,-1],"split_conditions":[NaN,NaN,1.02979265E-1,4.3264885E-2,-3.4168288E-2],"split_indices":[13,17,0,0,0],"split_type":[1,1,0,0,0],"sum_hessian":[5.7622917E1,4.6513885E1,1.1109031E1,5.1623573E0,4.135153E1],"tree_param":{"num_deleted":"0","num_feature":"20","num_nodes":"5","size_leaf_vector":"1"}},{"base_weights":[-1.0247584E-1,3.6856654E-1,-3.996268E-2,8.534187E-1,-4.475543E-2,-3.7117043E-4,1.4578284E-1],"categories":[0,1,2,3,4,5,6,7,8,9,10,11,12,13,14,15,16,17,18,19,20,21,22,23,24,25,26,27,28,0,1,2,3,4,5,6,7,8,9,10,11,0,1,2,3,4,5,6,7,8,9,10],"categories_nodes":[0,1,3],"categories_segments":[0,29,41],"categories_sizes":[29,12,11],"default_left":[1,1,0,1,0,0,0],"id":17,"left_children":[1,3,-1,5,-1,-1,-1],"loss_changes":[8.28704E0,9.488915E0,0E0,7.6631603E0,0E0,0E0,0E0],"parents":[2147483647,0,0,1,1,3,3],"right_children":[2,4,-1,6,-1,-1,-1],"split_conditions":[NaN,NaN,-3.996268E-2,NaN,-4.475543E-2,-3.7117043E-4,1.4578284E-1],"split_indices":[4,6,0,7,0,0,0],"split_type":[1,1,0,1,0,0,0],"sum_hessian":[5.715325E1,2.2014936E1,3.5138317E1,1.3781647E1,8.23329E0,6.110307E0,7.67134E0],"tree_param":{"num_deleted":"0","num_feature":"20","num_nodes":"7","size_leaf_vector":"1"}},{"base_weights":[1.6507622E-2,9.1816586E-1,-3.2782647E-1,1.3394037E-1,5.4084975E-2,2.6170978E-2,-4.569089E-2],"categories":[0,1,2,3,4,5,6,7,8,9,10,11,12,13,14,0,1,2,3,4,5,6,7,8,9,10,11,12,13,14,15,16,17,18,19,20,21,22,23,24,25,26,0,1,2,3,4,5,6,7,8,9,10,11,12,13,14,15,16,17,18,19,20,21,22,23,24,25,26],"categories_nodes":[0,1,2],"categories_segments":[0,15,42],"categories_sizes":[15,27,27],"default_left":[1,1,1,0,0,0,0],"id":18,"left_children":[1,3,5,-1,-1,-1,-1],"loss_changes":[1.887812E1,1.9455738E0,3.470695E0,0E0,0E0,0E0,0E0],"parents":[2147483647,0,0,1,1,2,2],"right_children":[2,4,6,-1,-1,-1,-1],"split_conditions":[NaN,NaN,NaN,1.3394037E-1,5.4084975E-2,2.6170978E-2,-4.569089E-2],"split_indices":[7,3,3,0,0,0,0],"split_type":[1,1,1,0,0,0,0],"sum_hessian":[5.883516E1,1.5798748E1,4.303641E1,6.2601094E0,9.538638E0,7.54589E0,3.549052E1],"tree_param":{"num_deleted":"0","num_feature":"20","num_nodes":"7","size_leaf_vector":"1"}},{"base_weights":[2.4470303E-2,7.792637E-2,-1.1301948E-1,-2.0397147E-2,6.022963E-2],"categories":[0,1,2,3,4,5,6,7,8,9,10,11,12,13,14,15,16,17,18,19,20,21,22,23,24,25,26,27,28,29,30,31,32,33,34,35,36,37,38,39,40,41,42,43,44,45,46,47,48,49,50,51,52,53,54,55,56,57,58,59,60,61,62,63,64,65,66,67,68,69,70,71,72,73,74,75,76,77,78,79,80,81,82,83,84,85,86,87,88,89,90,91,92,93,94,95,96,97,98,99,100,101,102,103,104,105,106,107,108,109,110,111,112,113,114,115,116,117,118,119,120,121,122,123,124,125,126,127,128,129,130,131,132,133,134,135,136,137,138,139,140,141,142,143,144,145,146,147,148,149,150,151,152,153,154,155,156,157,158,159,160,161,162,163,164,165,166,167,168,169,170,171,172,173,174,175,176,177,178,179,180,181,182,183,184,185,186,187,188,189,190,191,192,193,194,195,196,197,198,199,200,201,202,203,204,205,206,207,208,209,210,211,212,213,214,215,216,217,218,219,220,221,222,223,224,225,226,227,228,229,230,231,232,233,234,235,236,237,238,239,240,241,242,243,244,245,246,247,248,249,250,251,252,253,254,255,256,257,258,259,260,261,262,263,264,265,266,267,268,269,270,271,272,273,274,275,276,277,278,279,280,281,282,283,284,285,286,287,288,289,290,291,292,293,294,295,296,297,298,299,300,301,302,303,304,305,306,307,308,309,310,311,312,313,314,315,316,317,318,319,320,321,322,323,324,325,326,327,328,329,330,331,332,333,334,335,336,337,338,339,340,341,342,343,344,345,0,1,2,3,4,5,6,7,8,9,10,11,12,13,14,15,16,17,18,19,20,21,22,23,24,25,26,27,28,29,30,31,32,33,34,35,36,37,38,39,40,41,42,43,44],"categories_nodes":[0,2],"categories_segments":[0,346],"categories_sizes":[346,45],"default_left":[0,0,1,0,0],"id":19,"left_children":[1,-1,3,-1,-1],"loss_changes":[6.3846536E0,0E0,3.5188644E0,0E0,0E0],"parents":[2147483647,0,0,2,2],"right_children":[2,-1,4,-1,-1],"split_conditions":[NaN,7.792637E-2,NaN,-2.0397147E-2,6.022963E-2],"split_indices":[14,0,12,0,0],"split_type":[1,0,1,0,0],"sum_hessian":[5.9674515E1,8.475855E0,5.119866E1,4.6057346E1,5.1413136E0],"tree_param":{"num_deleted":"0","num_feature":"20","num_nodes":"5","size_leaf_vector":"1"}},{"base_weights":[7.333879E-2,-2.995558E-1,4.8635295E-1,-5.69503E-2,-3.9472863E-2,-3.9687887E-2,7.922913E-1,3.42194E-2,-3.4263592E-2,3.182279E-2,1.1358565E-1],"categories":[0,1,2,3,4,5,6,7,8,9,10,11,12,13,14,15,16,17,18,19,20,21,0,1,2,3,4,5,6,7,8,9,10,11,0,1,2,3,4,5,6,7,8,9,10,11,12,13,14,0,1,2,3,4,5,6,7,0,1,2,3,4,5,6,7,8,9,10,11,12,13,14,15,16,17,18,19,20,21,22,23,24,25],"categories_nodes":[0,1,2,4,6],"categories_segments":[0,22,34,49,57],"categories_sizes":[22,12,15,8,26],"default_left":[1,1,1,0,1,0,1,0,0,0,0],"id":20,"left_children":[1,3,5,-1,7,-1,9,-1,-1,-1,-1],"loss_changes":[8.810119E0,2.0967052E0,7.630365E0,0E0,2.0203316E0,0E0,2.9680882E0,0E0,0E0,0E0,0E0],"parents":[2147483647,0,0,1,1,2,2,4,4,6,6],"right_children":[2,4,6,-1,8,-1,10,-1,-1,-1,-1],"split_conditions":[NaN,NaN,NaN,-5.69503E-2,NaN,-3.9687887E-2,NaN,3.42194E-2,-3.4263592E-2,3.182279E-2,1.1358565E-1],"split_indices":[4,6,7,0,7,0,5,0,0,0,0],"split_type":[1,1,1,0,1,0,1,0,0,0,0],"sum_hessian":[5.52586E1,2.9184103E1,2.6074495E1,1.3736705E1,1.5447398E1,6.6317234E0,1.9442772E1,6.7813177E0,8.66608E0,8.979202E0,1.046357E1],"tree_param":{"num_deleted":"0","num_feature":"20","num_nodes":"11","size_leaf_vector":"1"}},{"base_weights":[2.6297037E-2,-1.6264E-1,7.6401345E-2,5.5736452E-2,-2.6882592E-1,-3.7912216E-2,4.217895E-2],"categories":[0,1,2,3,4,5,6,7,8,9,10,11,12,13,14,15,16,17,18,19,20,21,22,23,24,25,26,27,28,29,30,31,32,33,34,35,36,37,38,39,40,41,42,43,44,45,46,47,48,49,50,51,52,0,1,2,3,4,5,6,7,8,9,10,11,12,13,14,15,16,17,18,19,20,21,22,23,24,25,26,27,28,29,30,31,32,33,34,35,36,37,38,39,40,41,42,43,44,45,46,47,48,49,50,51,52,53,54,55,56,57,58,59,60,61,62,63,64,65,66,67,68,69,70,71,72,73,74,75,76,77,78,79,80,81,82,83,84,85,86,87,88,89,90,91,92,93,94,95,96,97,98,99,100,101,102,103,104,105,106,107,108,109,110,111,112,113,114,115,116,117,118,119,120,121,122,123,124,125,126,127,128,129,130,131,132,133,134,135,136,137,138,139,140,141,142,143,144,145,146,147,148,149,150,151,152,153,154,155,156,157,158,159,160,161,162,163,164,165,166,167,168,169,170,171,172,173,174,175,176,177,178,179,180,181,182,183,184,185,186,187,188,189,190,191,192,193,194,195,196,197,198,199,200,201,202,203,204,205,206,207,208,209,210,211,212,213,214,215,216,217,218,219,220,221,222,223,224,225,226,227,228,229,230,231,232,233,234,235,236,237,238,239,240,241,242,243,244,245,246,247,248,249,250,251,252,253,254,255,256,257,258,259,260,261,262,263,264,265,266,267,268,269,270,271,272,273,274,275,276,277,278,279,280,281,282,283,284,285,286,287,288,289,290,291,292,293,294,295,296,297,298,299,300,301,302,303,304,305,306,307,308,309,310,311,312,313,314,315,316,317,318,319,320,321,322,323,324,325,0,1,2,3,4,5,6,7,8,9],"categories_nodes":[0,1,4],"categories_segments":[0,53,379],"categories_sizes":[53,326,10],"default_left":[1,0,0,0,1,0,0],"id":21,"left_children":[1,3,-1,-1,5,-1,-1],"loss_changes":[8.292111E0,3.7796428E0,0E0,0E0,3.362916E0,0E0,0E0],"parents":[2147483647,0,0,1,1,4,4],"right_children":[2,4,-1,-1,6,-1,-1],"split_conditions":[NaN,NaN,7.6401345E-2,5.5736452E-2,NaN,-3.7912216E-2,4.217895E-2],"split_indices":[13,19,0,0,3,0,0],"split_type":[1,1,0,0,1,0,0],"sum_hessian":[5.7600502E1,4.6476826E1,1.1123676E1,5.427326E0,4.10495E1,3.578536E1,5.2641416E0],"tree_param":{"num_deleted":"0","num_feature":"20","num_nodes":"7","size_leaf_vector":"1"}},{"base_weights":[-5.584274E-2,4.491087E-1,-3.3202037E-2,8.194418E-1,-1.2117771E-2,2.8227463E-2,1.23717025E-1],"categories":[0,1,2,3,4,5,6,7,8,9,10,11,12,13,14,15,16,17,18,19,20,21,22,23,24,25,26,27,28,29,30,0,1,2,3,4,5,6,7,8,9,10,11,12,13,0,1,2,3,4,5,6,7,8,9],"categories_nodes":[0,1,3],"categories_segments":[0,31,45],"categories_sizes":[31,14,10],"default_left":[1,1,0,1,0,0,0],"id":22,"left_children":[1,3,-1,5,-1,-1,-1],"loss_changes":[8.315874E0,4.5619016E0,0E0,2.5543375E0,0E0,0E0,0E0],"parents":[2147483647,0,0,1,1,3,3],"right_children":[2,4,-1,6,-1,-1,-1],"split_conditions":[NaN,NaN,-3.3202037E-2,NaN,-1.2117771E-2,2.8227463E-2,1.23717025E-1],"split_indices":[4,6,0,7,0,0,0],"split_type":[1,1,0,1,0,0,0],"sum_hessian":[5.7561447E1,2.013016E1,3.743129E1,1.1939792E1,8.190368E0,5.9562464E0,5.983546E0],"tree_param":{"num_deleted":"0","num_feature":"20","num_nodes":"7","size_leaf_vector":"1"}},{"base_weights":[-5.1065892E-2,6.352539E-1,-3.179408E-1,5.8343387E-3,9.197717E-2,4.312372E-2,-4.5199793E-2],"categories":[0,1,2,3,4,5,6,7,8,9,10,11,12,13,14,15,16,17,18,19,20,21,22,23,24,25,26,0,1,2,3,4,5,6,7,8,9,10,11,12,13,14,15,16,17,18,19,20,21,22,23,24,25,26,27,28,29,30,31,32,33,34,35,36,37,38,39,40,41,42,43,44,45,46,47,48,49,50,51,52,53,54,55,56,57,58,59,60,61,62,63,64,65,66,67,68,69,70,71,72,73,74,75,76,77,78,79,80,81,82,83,84,85,86,87,88,89,90,91,92,93,94,95,96,97,98,99,100,101,102,103,104,105,106,107,108,109,110,111,112,113,114,115,116,117,118,119,120,121,122,123,124,125,126,127,128,129,130,131,132,133,134,135,136,137,138,139,140,141,142,143,144,145,146,147,148,149,150,151,152,153,154,155,156,157,158,159,160,161,162,163,164,165,166,167,168,169,170,171,172,173,174,175,176,177,178,179,180,181,182,183,184,185,186,187,188,189,190,191,192,193,194,195,196,197,198,199,200,201,202,203,204,205,206,207,208,209,210,211,212,213,214,215,216,217,218,219,220,221,222,223,224,225,226,227,228,229,230,231,232,233,234,235,236,237,238,239,240,241,242,243,244,245,246,247,248,249,250,251,252,253,254,255,256,257,258,259,260,261,262,263,264,265,266,267,268,269,270,271,272,273,274,275,276,277,278,279,280,281,282,283,284,285,286,287,288,289,290,291,292,293,294,295,296,297,298,299,300,301,302,303,304,305,306,307,308,309,310,311,312,313,314,315,316,317,318,319,320,321,322,323,324,325,326,327,328,329,330,331,332,333,334,335,336,337,0,1,2,3,4,5,6,7,8,9,10,11,12,13,14],"categories_nodes":[0,1,2],"categories_segments":[0,27,365],"categories_sizes":[27,338,15],"default_left":[1,0,1,0,0,0,0],"id":23,"left_children":[1,3,5,-1,-1,-1,-1],"loss_changes":[1.088082E1,2.6804652E0,4.4779406E0,0E0,0E0,0E0,0E0],"parents":[2147483647,0,0,1,1,2,2],"right_children":[2,4,6,-1,-1,-1,-1],"split_conditions":[NaN,NaN,NaN,5.8343387E-3,9.197717E-2,4.312372E-2,-4.5199793E-2],"split_indices":[3,10,7,0,0,0,0],"split_type":[1,1,1,0,0,0,0],"sum_hessian":[5.7302883E1,1.5657161E1,4.164572E1,5.569357E0,1.0087804E1,5.9845057E0,3.5661217E1],"tree_param":{"num_deleted":"0","num_feature":"20","num_nodes":"7","size_leaf_vector":"1"}},{"base_weights":[6.2057607E-2,8.513181E-2,-1.1451622E-1,3.4855846E-1,-3.0755503E-2,-1.6809963E-3,6.056722E-2],"categories":[0,1,2,3,4,5,6,7,8,9,10,11,12,13,14,15,16,17,18,19,20,21,22,23,24,25,26,27,28,29,30,31,32,33,34,35,36,37,38,39,40,41,42,43,44,45,46,47,48,49,50,51,52,53,54,55,56,57,58,59,60,61,62,63,64,65,66,67,68,69,70,71,72,73,74,75,76,77,78,79,80,81,82,83,84,85,86,87,88,89,90,91,92,93,94,95,96,97,98,99,100,101,102,103,104,105,106,107,108,109,110,111,112,113,114,115,116,117,118,119,120,121,122,123,124,125,126,127,128,129,130,131,132,133,134,135,136,137,138,139,140,141,142,143,144,145,146,147,148,149,150,151,152,153,154,155,156,157,158,159,160,161,162,163,164,165,166,167,168,169,170,171,172,173,174,175,176,177,178,179,180,181,182,183,184,185,186,187,188,189,190,191,192,193,194,195,196,197,198,199,200,201,202,203,204,205,206,207,208,209,210,211,212,213,214,215,216,217,218,219,220,221,222,223,224,225,226,227,228,229,230,231,232,233,234,235,236,237,238,239,240,241,242,243,244,245,246,247,248,249,250,251,252,253,254,255,256,257,258,259,260,261,262,263,264,265,266,267,268,269,270,271,272,273,274,275,276,277,278,279,280,281,282,283,284,285,286,287,288,289,290,291,292,293,294,295,296,297,298,299,300,301,302,303,304,305,306,307,308,309,310,311,312,313,314,315,316,317,318,319,320,321,322,323,324,325,326,327,328,329,330,331,332,0,1,2,3,4,5,6,7,8,9,10,11,12,14,16,0,1,2,3,4,5,6,7,8,9,10,11,12,13,14,15,16,17,18,19,20,21,22,23],"categories_nodes":[0,2,3],"categories_segments":[0,333,348],"categories_sizes":[333,15,24],"default_left":[0,0,1,1,0,0,0],"id":24,"left_children":[1,-1,3,5,-1,-1,-1],"loss_changes":[8.889717E0,0E0,4.794557E0,1.5035025E0,0E0,0E0,0E0],"parents":[2147483647,0,0,2,2,3,3],"right_children":[2,-1,4,6,-1,-1,-1],"split_conditions":[NaN,8.513181E-2,NaN,NaN,-3.0755503E-2,-1.6809963E-3,6.056722E-2],"split_indices":[14,0,8,5,0,0,0],"split_type":[1,0,1,1,0,0,0],"sum_hessian":[6.2088795E1,1.0652461E1,5.1436337E1,1.4896338E1,3.6539997E1,6.538913E0,8.357426E0],"tree_param":{"num_deleted":"0","num_feature":"20","num_nodes":"7","size_leaf_vector":"1"}},{"base_weights":[5.3718947E-2,-5.259044E-2,1.5158889E-1,2.5404644E-1,-4.109898E-2,3.703122E-1,-3.825919E-2,-1.8165478E-2,4.7024947E-2],"categories":[0,1,2,3,4,5,6,7,8,9,10,11,12,13,14,15,16,17,18,19,20,21,22,23,24,25,26,27,28,29,30,31,32,33,34,35,36,37,38,39,40,41,42,43,44,45,46,47,48,49,50,51,52,53,54,55,56,57,58,59,60,61,62,63,64,65,66,67,68,69,70,71,72,73,74,75,76,77,78,79,80,81,82,83,84,85,86,87,88,89,90,91,92,93,94,95,96,97,98,99,100,101,102,103,104,105,106,107,108,109,110,111,112,113,114,115,116,117,118,119,120,121,122,123,124,125,126,127,128,129,130,131,132,133,134,135,136,137,138,139,140,141,142,143,144,145,146,147,148,149,150,151,152,153,154,155,156,157,158,159,160,161,162,163,164,165,166,167,168,169,170,171,172,173,174,175,176,177,178,179,180,181,182,183,184,185,186,187,188,189,190,191,192,193,194,195,196,197,198,199,200,201,202,203,204,205,206,207,208,209,210,211,212,213,214,215,216,217,218,219,220,221,222,223,224,225,226,227,228,229,230,231,232,233,234,235,236,237,238,239,240,241,242,243,244,245,246,247,248,249,250,251,252,253,254,255,256,257,258,259,260,261,262,263,264,265,266,267,268,269,270,271,272,273,274,275,276,277,278,279,280,281,282,283,284,285,286,287,288,289,290,291,292,293,294,295,296,297,298,299,300,301,302,303,304,305,306,307,308,309,310,311,312,313,314,315,316,317,318,319,320,321,322,0,1,2,3,4,5,6,7,8,9,10,11,0,1,2,3,4,5,6,7,8,9,10,11,12,13,14,15,16,17,18,19,20,21,22,23,24,25,26,27,28,29,30,31,32,33,34,35,36,37,38,39,40,41,42,43,44,45,46,47,48,49,50,51,52,53,54,55,56,57,58,59,60,0,1,2,3,4,5,6,7,8,9,10,11,12,13,14,15,16,17,18,19,20,21,22,23,24,25,26,27,28,29,30,31,32],"categories_nodes":[0,2,3,5],"categories_segments":[0,323,335,396],"categories_sizes":[323,12,61,33],"default_left":[0,0,1,1,0,1,0,0,0],"id":25,"left_children":[1,-1,3,5,-1,7,-1,-1,-1],"loss_changes":[3.2581327E0,0E0,2.9121675E0,3.2375274E0,0E0,2.0643258E0,0E0,0E0,0E0],"parents":[2147483647,0,0,2,2,3,3,5,5],"right_children":[2,-1,4,6,-1,8,-1,-1,-1],"split_conditions":[NaN,-5.259044E-2,NaN,NaN,-4.109898E-2,NaN,-3.825919E-2,-1.8165478E-2,4.7024947E-2],"split_indices":[15,0,3,11,0,4,0,0,0],"split_type":[1,0,1,1,0,1,0,0,0],"sum_hessian":[5.502926E1,7.3176756E0,4.7711586E1,4.082492E1,6.886663E0,3.4874344E1,5.9505777E0,5.2209015E0,2.9653442E1],"tree_param":{"num_deleted":"0","num_feature":"20","num_nodes":"9","size_leaf_vector":"1"}},{"base_weights":[-1.7544657E-2,-1.5304196E-1,1.211633E-1,-3.634113E-1,5.2508485E-2,-4.5702554E-2,1.9286511E-2],"categories":[0,1,2,3,4,5,6,7,8,0,1,2,3,4,5,6,7,8,9,10,11,12,13,14,15,16,17,18,19,20,21,22,23,24,25,26,27,28,29,30,31,32,33,34,35,36,37,38,39,40,41,42,43,44,45,46,47,48,49,50,51,52,53,54,55,56,57,58,59,60,61,0,1,2,3,4,5,6,7,8,9,10,11,12,13,14,15,16,17,18,19,20,21,22,23,24,25,26,27,28,29,30,31,32,33,34,35,36,37,38,39,40,41,42,43,44,45,46,47,48,49,50,51,52,53,54,55,56,57,58,59,60,61],"categories_nodes":[0,1,3],"categories_segments":[0,9,71],"categories_sizes":[9,62,62],"default_left":[1,1,0,1,0,0,0],"id":26,"left_children":[1,3,-1,5,-1,-1,-1],"loss_changes":[1.0292011E1,8.114665E0,0E0,2.3265696E0,0E0,0E0,0E0],"parents":[2147483647,0,0,1,1,3,3],"right_children":[2,4,-1,6,-1,-1,-1],"split_conditions":[NaN,NaN,1.211633E-1,NaN,5.2508485E-2,-4.5702554E-2,1.9286511E-2],"split_indices":[3,13,0,2,0,0,0],"split_type":[1,1,0,1,0,0,0],"sum_hessian":[5.968187E1,5.4544678E1,5.1371913E0,4.1984337E1,1.2560338E1,3.608938E1,5.8949614E0],"tree_param":{"num_deleted":"0","num_feature":"20","num_nodes":"7","size_leaf_vector":"1"}},{"base_weights":[-2.3165983E-3,-2.3739655E-1,8.8559586E-1,-3.2845983E-1,4.0305555E-2,3.4879174E-2,1.2655735E-1,-4.5975458E-2,2.2278896E-3],"categories":[0,1,2,3,4,5,6,7,8,9,10,11,12,13,14,15,16,17,18,19,20,21,22,23,24,25,26,27,28,29,30,31,32,33,34,35,36,37,38,39,40,41,42,43,44,45,46,47,48,49,50,51,52,53,54,55,56,57,0,1,2,3,4,5,6,7,8,9,10,11,12,13,14,15,16,17,18,19,20,21,22,23,24,25,26,27,28,29,30,31,32,33,34,35,36,37,38,39,40,41,42,43,44,45,46,47,48,49,50,51,52,53,54,55,56,57,58,0,1,2,3,4,5,6,7,8,9,10,11,12,13,14,15,16,17,18,19,20,21,22,23,24,25,26,27,28,29,30,31,32,33,34,35,36,37,38,39,40,41,42,43,44,45,46,47,48,49,50,51,52,53,54,0,7,9],"categories_nodes":[0,1,2,3],"categories_segments":[0,58,117,172],"categories_sizes":[58,59,55,3],"default_left":[1,1,1,1,0,0,0,0,0],"id":27,"left_children":[1,3,5,7,-1,-1,-1,-1,-1],"loss_changes":[1.2202582E1,2.8277438E0,2.0548868E0,1.8989067E0,0E0,0E0,0E0,0E0,0E0],"parents":[2147483647,0,0,1,1,2,2,3,3],"right_children":[2,4,6,8,-1,-1,-1,-1,-1],"split_conditions":[NaN,NaN,NaN,NaN,4.0305555E-2,3.4879174E-2,1.2655735E-1,-4.5975458E-2,2.2278896E-3],"split_indices":[16,17,1,6,0,0,0,0,0],"split_type":[1,1,1,1,0,0,0,0,0],"sum_hessian":[5.6453747E1,4.5215355E1,1.1238391E1,4.0013187E1,5.2021685E0,5.452886E0,5.785505E0,2.8888363E1,1.1124823E1],"tree_param":{"num_deleted":"0","num_feature":"20","num_nodes":"9","size_leaf_vector":"1"}},{"base_weights":[-7.841158E-3,5.958231E-1,-2.4260108E-1,8.4851906E-2,1.4457263E-2,5.580144E-2,-3.7632205E-2],"categories":[0,1,2,3,4,5,6,7,8,9,10,11,12,13,14,15,16,17,18,19,20,21,22,23,24,25,26,0,1,2,3,4,5,6,7,8,9,0,1,2,3,4,5,6,7,8,9,10,11,12,13,14,15,16,17,18,19,20,21,22,23,24,25,26,27,28,29,30,31,32,33,34,35,36,37,38,39,40,41,42,43,44,45,46,47,48,49,50,51,52,53,54,55,56,57,58,59,60,61,62,63,64,65,66,67,68,69,70,71,72,73,74,75,76,77,78,79,80,81,82,83,84,85,86,87,88,89,90,91,92,93,94,95,96,97,98,99,100,101,102,103,104,105,106,107,108,109,110,111,112,113,114,115,116,117,118,119,120,121,122,123,124,125,126,127,128,129,130,131,132,133,134,135,136,137,138,139,140,141,142,143,144,145,146,147,148,149,150,151,152,153,154,155,156,157,158,159,160,161,162,163,164,165,166,167,168,169,170,171,172,173,174,175,176,177,178,179,180,181,182,183,184,185,186,187,188,189,190,191,192,193,194,195,196,197,198,199,200,201,202,203,204,205,206,207,208,209,210,211,212,213,214,215,216,217,218,219,220,221,222,223,224,225,226,227,228,229,230,231,232,233,234,235,236,237,238,239,240,241,242,243,244,245,246,247,248,249,250,251,252,253,254,255,256,257,258,259,260,261,262,263,264,265,266,267,268,269,270,271,272,273,274,275,276,277,278,279,280,281,282,283,284,285,286,287,288,289,290,291,292,293,294,295,296,297,298,299,300,301,302,303,304,305,306,307,308,309,310,311,312,313,314,315,316,317,318,319,320,321,322,323,324,325,326,327,328,329,330,331,332,333,334,335,336,337,338,339,340,341,342],"categories_nodes":[0,1,2],"categories_segments":[0,27,37],"categories_sizes":[27,10,343],"default_left":[1,1,0,0,0,0,0],"id":28,"left_children":[1,3,5,-1,-1,-1,-1],"loss_changes":[8.230601E0,1.7320914E0,4.684247E0,0E0,0E0,0E0,0E0],"parents":[2147483647,0,0,1,1,2,2],"right_children":[2,4,6,-1,-1,-1,-1],"split_conditions":[NaN,NaN,NaN,8.4851906E-2,1.4457263E-2,5.580144E-2,-3.7632205E-2],"split_indices":[3,6,18,0,0,0,0],"split_type":[1,1,1,0,0,0,0],"sum_hessian":[5.6058086E1,1.5265697E1,4.0792393E1,9.221418E0,6.044278E0,5.384039E0,3.540835E1],"tree_param":{"num_deleted":"0","num_feature":"20","num_nodes":"7","size_leaf_vector":"1"}},{"base_weights":[1.6514678E-1,3.9782515E-1,-2.7992947E-2,8.4613204E-2,2.6051748E-1,-2.1885844E-2,4.243165E-1,7.966016E-2,2.148805E-2],"categories":[0,1,2,3,4,5,6,7,8,9,10,0,1,2,3,4,5,6,7,8,10,11,12,13,14,15,16,17,18,19,20,21,0,1,2,3,4,5,6,7,8,9,10,11,12,13,14,15,16,17,18,19,20,21,22,23,24,25,26,27,0,1,2,3,4,5,6,7,8,9,10,11,12,13,14,15,16,17,18,19,20,21,22,23,24,25,26,27,28,29,30,31,32,33,34,35,36,37,38,39,40,41,42,43,44,45,46,47,48,49,50,51,52,53,54,55,56,57,58,59,60,61,62,63,64,65,66,67,68,69,70,71,72,73,74,75,76,77,78,79,80,81,82,83,84,85,86,87,88,89,90,91,92,93,94,95,96,97,98,99,100,101,102,103,104,105,106,107,108,109,110,111,112,113,114,115,116,117,118,119,120,121,122,123,124,125,126,127,128,129,130,131,132,133,134,135,136,137,138,139,140,141,142,143,144,145,146,147,148,149,150,151,152,153,154,155,156,157,158,159,160,161,162,163,164,165,166,167,168,169,170,171,172,173,174,175,176,177,178,179,180,181,182,183,184,185,186,187,188,189,190,191,192,193,194,195,196,197,198,199,200,201,202,203,204,205,206,207,208,209,210,211,212,213,214,215,216,217,218,219,220,221,222,223,224,225,226,227,228,229,230,231,232,233,234,235,236,237,238,239,240,241,242,243,244,245,246,247,248,249,250,251,252,253,254,255,256,257,258,259,260,261,262,263,264,265,266,267,268,269,270,271,272,273,274,275,276,277,278,279,280,281,282,283,284,285,286,287,288,289,290,291,292,293,294,295,296,297,298,299,300,301,302,303,304,305,306,307,308,309,310,311,312,313,314,315,316,317,318,319,320,321,322,323,324,325,326,327,328,329,330,331,332],"categories_nodes":[0,1,4,6],"categories_segments":[0,11,32,60],"categories_sizes":[11,21,28,333],"default_left":[1,1,0,0,1,0,0,0,0],"id":29,"left_children":[1,3,-1,-1,5,-1,7,-1,-1],"loss_changes":[6.0113955E0,2.108004E0,0E0,0E0,2.4800806E0,0E0,1.6221194E0,0E0,0E0],"parents":[2147483647,0,0,1,1,4,4,6,6],"right_children":[2,4,-1,-1,6,-1,8,-1,-1],"split_conditions":[NaN,NaN,-2.7992947E-2,8.4613204E-2,NaN,-2.1885844E-2,NaN,7.966016E-2,2.148805E-2],"split_indices":[7,6,0,0,3,0,14,0,0],"split_type":[1,1,0,0,1,0,1,0,0],"sum_hessian":[5.5972332E1,3.6826317E1,1.9146015E1,7.424186E0,2.9402132E1,7.402312E0,2.199982E1,6.9111967E0,1.5088624E1],"tree_param":{"num_deleted":"0","num_feature":"20","num_nodes":"9","size_leaf_vector":"1"}},{"base_weights":[6.465386E-3,-4.3544333E-2,1.5882441E-1,-4.103768E-2,2.8130814E-1,3.937074E-1,-3.6421094E-2,5.54745E-2,-1.6701423E-3],"categories":[0,1,2,3,4,5,6,7,8,9,10,11,12,13,14,15,16,17,18,19,20,21,22,23,24,25,26,27,28,29,30,31,0,1,2,3,4,5,6,7,8,9,10,11,12,13,14,15,16,17,18,19,20,21,22,23,24,25,26,27,28,29,30,31,32,33,34,35,36,37,38,39,40,41,42,43,44,45,46,47,48,49,50,51,52,53,54,55,56,57,58,59,60,61,62,63,64,65,66,67,68,69,70,71,72,73,74,75,76,77,78,79,80,81,82,83,84,85,86,87,88,89,90,91,92,93,94,95,96,97,98,99,100,101,102,103,104,105,106,107,108,109,110,111,112,113,114,115,116,117,118,119,120,121,122,123,124,125,126,127,128,129,130,131,132,133,134,135,136,137,138,139,140,141,142,143,144,145,146,147,148,149,150,151,152,153,154,155,156,157,158,159,160,161,162,163,164,165,166,167,168,169,170,171,172,173,174,175,176,177,178,179,180,181,182,183,184,185,186,187,188,189,190,191,192,193,194,195,196,197,198,199,200,201,202,203,204,205,206,207,208,209,210,211,212,213,214,215,216,217,218,219,220,221,222,223,224,225,226,227,228,229,230,231,232,233,234,235,236,237,238,239,240,241,242,243,244,245,246,247,248,249,250,251,252,253,254,255,256,257,258,259,260,261,262,263,264,265,266,267,268,269,270,271,272,273,274,275,276,277,278,279,280,281,282,283,284,285,286,287,288,289,290,291,292,293,294,295,296,297,298,299,300,301,302,303,304,305,306,307,308,309,310,311,312,313,314,315,316,317,318,319,320,321,322,0,1,2,3,4,5,6,7,0,1,2,3,4,5,6,7,8,9,10,11,12,13,14,15],"categories_nodes":[0,2,4,5],"categories_segments":[0,32,355,363],"categories_sizes":[32,323,8,16],"default_left":[1,0,0,0,1,1,0,0,0],"id":30,"left_children":[1,-1,3,-1,5,7,-1,-1,-1],"loss_changes":[4.2115273E0,0E0,3.3561735E0,0E0,2.961861E0,2.2276354E0,0E0,0E0,0E0],"parents":[2147483647,0,0,2,2,4,4,5,5],"right_children":[2,-1,4,-1,6,8,-1,-1,-1],"split_conditions":[NaN,-4.3544333E-2,NaN,-4.103768E-2,NaN,NaN,-3.6421094E-2,5.54745E-2,-1.6701423E-3],"split_indices":[4,0,14,0,7,5,0,0,0],"split_type":[1,0,1,0,1,1,0,0,0],"sum_hessian":[6.0524475E1,1.5040975E1,4.54835E1,7.638009E0,3.7845493E1,3.256525E1,5.2802444E0,2.3135551E1,9.429697E0],"tree_param":{"num_deleted":"0","num_feature":"20","num_nodes":"9","size_leaf_vector":"1"}},{"base_weights":[-4.840939E-2,-2.230593E-1,6.231289E-2,4.8432544E-2,-3.4057576E-2],"categories":[0,1,2,3,4,5,6,7,8,9,10,11,12,13,14,15,16,17,18,19,20,21,22,23,24,25,26,27,28,29,30,31,32,33,34,35,36,37,38,39,40,41,42,43,44,45,46,47,48,49,50,51,52,53,54,55,56,57,58,0,1,2,3,4,5,6,7,8,9,10,11,12,13,14,15,16,17,18,19,20,21,22,23,24,25,26,27,28,29,30,31,32,33,34,35,36,37,38,39,40,41,42,43,44,45,46,47,48,49,50,51,52,53,54,55,56,57,58,59,60,61,62,63,64,65,66,67,68,69,70,71,72,73,74,75,76,77,78,79,80,81,82,83,84,85,86,87,88,89,90,91,92,93,94,95,96,97,98,99,100,101,102,103,104,105,106,107,108,109,110,111,112,113,114,115,116,117,118,119,120,121,122,123,124,125,126,127,128,129,130,131,132,133,134,135,136,137,138,139,140,141,142,143,144,145,146,147,148,149,150,151,152,153,154,155,156,157,158,159,160,161,162,163,164,165,166,167,168,169,170,171,172,173,174,175,176,177,178,179,180,181,182,183,184,185,186,187,188,189,190,191,192,193,194,195,196,197,198,199,200,201,202,203,204,205,206,207,208,209,210,211,212,213,214,215,216,217,218,219,220,221,222,223,224,225,226,227,228,229,230,231,232,233,234,235,236,237,238,239,240,241,242,243,244,245,246,247,248,249,250,251,252,253,254,255,256,257,258,259,260,261,262,263,264,265,266,267,268,269,270,271,272,273,274,275,276,277,278,279,280,281,282,283,284,285,286,287,288,289,290,291,292,293,294,295,296,297,298,299,300,301,302,303,304,305,306,307,308,309,310,311,312,313,314,315,316,317,318,319,320,321,322,323,324,325,326,327,328,329,330,331,332,333,334,335,336,337,338,339,340,341,342,343],"categories_nodes":[0,1],"categories_segments":[0,59],"categories_sizes":[59,344],"default_left":[1,0,0,0,0],"id":31,"left_children":[1,3,-1,-1,-1],"loss_changes":[7.3917384E0,4.3058014E0,0E0,0E0,0E0],"parents":[2147483647,0,0,1,1],"right_children":[2,4,-1,-1,-1],"split_conditions":[NaN,NaN,6.231289E-2,4.8432544E-2,-3.4057576E-2],"split_indices":[14,17,0,0,0],"split_type":[1,1,0,0,0],"sum_hessian":[6.0839104E1,4.8812153E1,1.2026952E1,6.5091705E0,4.2302982E1],"tree_param":{"num_deleted":"0","num_feature":"20","num_nodes":"5","size_leaf_vector":"1"}},{"base_weights":[4.249839E-4,5.4080313E-1,-4.5253824E-2,8.798518E-1,-1.3462648E-2,1.7601753E-2,1.1961802E-1],"categories":[0,1,2,3,4,5,6,7,8,9,10,11,12,13,14,15,16,17,18,19,20,21,22,23,24,25,26,27,28,29,0,1,2,3,4,5,6,7,8,9,10,11,0,1,2,3,4,5,6,7,8,9,10],"categories_nodes":[0,1,3],"categories_segments":[0,30,42],"categories_sizes":[30,12,11],"default_left":[1,1,0,1,0,0,0],"id":32,"left_children":[1,3,-1,5,-1,-1,-1],"loss_changes":[1.4105546E1,6.136142E0,0E0,3.7142305E0,0E0,0E0,0E0],"parents":[2147483647,0,0,1,1,3,3],"right_children":[2,4,-1,6,-1,-1,-1],"split_conditions":[NaN,NaN,-4.5253824E-2,NaN,-1.3462648E-2,1.7601753E-2,1.1961802E-1],"split_indices":[4,6,0,7,0,0,0],"split_type":[1,1,0,1,0,0,0],"sum_hessian":[5.562757E1,2.5277718E1,3.0349854E1,1.6628149E1,8.649569E0,5.638612E0,1.0989538E1],"tree_param":{"num_deleted":"0","num_feature":"20","num_nodes":"7","size_leaf_vector":"1"}},{"base_weights":[-1.0088983E-2,9.061271E-1,-3.1478673E-1,4.3883566E-2,1.3032603E-1,1.5136334E-2,-4.4386037E-2],"categories":[0,1,2,3,4,5,6,7,8,9,10,11,12,13,14,17,18,0,1,2,3,4,5,6,7,8,9,10,11,12,13,14,15,16,17,18,19,20,21,22,23,24,25,26,27,28,29,30,31,32,33,34,35,36,37,38,39,40,41,42,43,44,45,46,47,48,49,50,51,52,53,54,55,56,57,58,0,1,2,3,4,5,6,7,8,9,10,11,12,13,14,15,16,17,18,19,20,21,22,23,24,25,26],"categories_nodes":[0,1,2],"categories_segments":[0,17,76],"categories_sizes":[17,59,27],"default_left":[1,1,1,0,0,0,0],"id":33,"left_children":[1,3,5,-1,-1,-1,-1],"loss_changes":[1.7104624E1,2.2662325E0,2.8321538E0,0E0,0E0,0E0,0E0],"parents":[2147483647,0,0,1,1,2,2],"right_children":[2,4,6,-1,-1,-1,-1],"split_conditions":[NaN,NaN,NaN,4.3883566E-2,1.3032603E-1,1.5136334E-2,-4.4386037E-2],"split_indices":[7,19,3,0,0,0,0],"split_type":[1,1,1,0,0,0,0],"sum_hessian":[5.9248055E1,1.42936535E1,4.49544E1,7.5338583E0,6.7597947E0,9.710867E0,3.5243534E1],"tree_param":{"num_deleted":"0","num_feature":"20","num_nodes":"7","size_leaf_vector":"1"}},{"base_weights":[4.6892677E-2,9.222372E-2,-1.3743824E-1,1.6357739E-2,-2.8217733E-1,2.7366972E-2,-3.817638E-2],"categories":[0,1,2,3,4,5,6,7,8,9,10,11,12,13,14,15,16,17,18,19,20,21,22,23,24,25,26,27,28,29,30,31,32,33,34,35,36,37,38,39,40,41,42,43,44,45,46,47,48,49,50,51,52,53,54,55,56,57,58,59,60,61,62,63,64,65,66,67,68,69,70,71,72,73,74,75,76,77,78,79,80,81,82,83,84,85,86,87,88,89,90,91,92,93,94,95,96,97,98,99,100,101,102,103,104,105,106,107,108,109,110,111,112,113,114,115,116,117,118,119,120,121,122,123,124,125,126,127,128,129,130,131,132,133,134,135,136,137,138,139,140,141,142,143,144,145,146,147,148,149,150,151,152,153,154,155,156,157,158,159,160,161,162,163,164,165,166,167,168,169,170,171,172,173,174,175,176,177,178,179,180,181,182,183,184,185,186,187,188,189,190,191,192,193,194,195,196,197,198,199,200,201,202,203,204,205,206,207,208,209,210,211,212,213,214,215,216,217,218,219,220,221,222,223,224,225,226,227,228,229,230,231,232,233,234,235,236,237,238,239,240,241,242,243,244,245,246,247,248,249,250,251,252,253,254,255,256,257,258,259,260,261,262,263,264,265,266,267,268,269,270,271,272,273,274,275,276,277,278,279,280,281,282,283,284,285,286,287,288,289,290,291,292,293,294,295,296,297,298,299,300,301,302,303,304,305,306,307,308,309,310,311,312,313,314,315,316,317,318,319,320,321,322,323,324,325,326,327,328,329,330,331,332,0,1,2,3,4,5,6,7,8,9,11,12,14,15,16,0,1,2,3,4,5,6,7,8,9,10,11,12,13,14,15,16,17,18,19,20,21,22,23,24,25,26,27,28,29,30,31,32,33,34,35,36,37,38,39,40,41,42,43,44,45,46,47,48,49,50,51,52,53,54,55,56,57,58,59,60,61,62,63,64,65,66,67,68,69,70,71,72,73,74,75,76,77,78,79,80,81,82,83,84,85,86,87,88,89,90,91,92,93,94,95,96,97,98,99,100,101,102,103,104,105,106,107,108,109,110,111,112,113,114,115,116,117,118,119,120,121,122,123,124,125,126,127,128,129,130,131,132,133,134,135,136,137,138,139,140,141,142,143,144,145,146,147,148,149,150,151,152,153,154,155,156,157,158,159,160,161,162,163,164,165,166,167,168,169,170,171,172,173,174,175,176,177,178,179,180,181,182,183,184,185,186,187,188,189,190,191,192,193,194,195,196,197,198,199,200,201,202,203,204,205,206,207,208,209,210,211,212,213,214,215,216,217,218,219,220,221,222,223,224,225,226,227,228,229,230,231,232,233,234,235,236,237,238,239,240,241,242,243,244,245,246,247,248,249,250,251,252,253,254,255,256,257,258,259,260,261,262,263,264,265,266,267,268,269,270,271,272,273,274,275,276,277,278,279,280,281,282,283,284,285,286,287,288,289,290,291,292,293,294,295,296,297,298,299,300,301],"categories_nodes":[0,2,4],"categories_segments":[0,333,348],"categories_sizes":[333,15,302],"default_left":[0,0,1,0,0,0,0],"id":34,"left_children":[1,-1,3,-1,5,-1,-1],"loss_changes":[1.0688027E1,0E0,2.4397779E0,0E0,2.1784518E0,0E0,0E0],"parents":[2147483647,0,0,2,2,4,4],"right_children":[2,-1,4,-1,6,-1,-1],"split_conditions":[NaN,9.222372E-2,NaN,1.6357739E-2,NaN,2.7366972E-2,-3.817638E-2],"split_indices":[14,0,8,0,2,0,0],"split_type":[1,0,1,0,1,0,0],"sum_hessian":[6.445447E1,1.0515527E1,5.3938942E1,1.7472021E1,3.646692E1,5.275176E0,3.1191744E1],"tree_param":{"num_deleted":"0","num_feature":"20","num_nodes":"7","size_leaf_vector":"1"}},{"base_weights":[-3.429455E-2,1.904606E-1,-2.9569848E-2,-4.9902573E-2,3.2489312E-1,5.4795124E-2,-4.6549758E-4],"categories":[0,1,2,3,4,5,6,7,8,9,11,16,17,18,19,20,21,22,23,0,1,2,3,4,5,6,7,8,9,10,11,12,13,14,15,16,17,18,19,20,21,22,23,24,25,26,27,28,29,0,1,2,3,4,5,6,7,8,9,10,11,12,13,14,15,16,17,18],"categories_nodes":[0,1,4],"categories_segments":[0,19,49],"categories_sizes":[19,30,19],"default_left":[1,1,0,0,1,0,0],"id":35,"left_children":[1,3,-1,-1,5,-1,-1],"loss_changes":[3.7711835E0,3.3697724E0,0E0,0E0,2.1758683E0,0E0,0E0],"parents":[2147483647,0,0,1,1,4,4],"right_children":[2,4,-1,-1,6,-1,-1],"split_conditions":[NaN,NaN,-2.9569848E-2,-4.9902573E-2,NaN,5.4795124E-2,-4.6549758E-4],"split_indices":[8,4,0,0,4,0,0],"split_type":[1,1,0,0,1,0,0],"sum_hessian":[6.2229725E1,3.360636E1,2.8623365E1,5.040781E0,2.856558E1,1.663993E1,1.1925649E1],"tree_param":{"num_deleted":"0","num_feature":"20","num_nodes":"7","size_leaf_vector":"1"}},{"base_weights":[2.3798665E-2,7.479649E-2,-1.4168467E-1,-4.1561335E-2,1.3401382E-1,6.061374E-2,-2.1429451E-2],"categories":[0,1,2,3,4,6,8,9,10,11,12,13,14,15,16,17,18,19,20,21,22,0,1,2,3,4,5,6,7,8,9,11,0,1,2,3,9,11],"categories_nodes":[0,2,4],"categories_segments":[0,21,32],"categories_sizes":[21,11,6],"default_left":[1,0,1,0,1,0,0],"id":36,"left_children":[1,-1,3,-1,5,-1,-1],"loss_changes":[7.3882594E0,0E0,3.8548434E0,0E0,4.377141E0,0E0,0E0],"parents":[2147483647,0,0,2,2,4,4],"right_children":[2,-1,4,-1,6,-1,-1],"split_conditions":[NaN,7.479649E-2,NaN,-4.1561335E-2,NaN,6.061374E-2,-2.1429451E-2],"split_indices":[7,0,7,0,7,0,0],"split_type":[1,0,1,0,1,0,0],"sum_hessian":[5.976802E1,1.0462691E1,4.930533E1,2.4477482E1,2.4827847E1,1.0226219E1,1.4601626E1],"tree_param":{"num_deleted":"0","num_feature":"20","num_nodes":"7","size_leaf_vector":"1"}},{"base_weights":[4.480039E-2,-1.585661E-1,6.676998E-1,-2.8400157E-2,3.2966558E-2,7.4357367E-3,1.0942823E-1],"categories":[0,1,2,3,4,5,6,7,8,9,10,11,12,13,14,15,16,17,18,19,20,21,22,23,24,25,26,27,28,29,30,31,32,33,34,35,36,37,38,39,40,41,42,43,44,45,46,47,48,49,50,51,52,53,54,55,56,57,0,1,2,3,4,5,6,7,8,9,10,11,12,13,14,15,16,17,18,19,20,21,22,23,24,25,26,27,28,29,30,31,32,33,34,35,36,37,38,39,40,41,42,43,44,45,46,47,48,49,50,51,52,53,54,55,56,57,58,59,0,1,2,3,4,5,6,7,8,9],"categories_nodes":[0,1,2],"categories_segments":[0,58,118],"categories_sizes":[58,60,10],"default_left":[1,1,1,0,0,0,0],"id":37,"left_children":[1,3,5,-1,-1,-1,-1],"loss_changes":[7.8363256E0,2.9605365E0,3.7688837E0,0E0,0E0,0E0,0E0],"parents":[2147483647,0,0,1,1,2,2],"right_children":[2,4,6,-1,-1,-1,-1],"split_conditions":[NaN,NaN,NaN,-2.8400157E-2,3.2966558E-2,7.4357367E-3,1.0942823E-1],"split_indices":[16,14,7,0,0,0,0],"split_type":[1,1,1,0,0,0,0],"sum_hessian":[6.002496E1,4.5813152E1,1.4211807E1,3.6781605E1,9.031548E0,6.4352264E0,7.7765813E0],"tree_param":{"num_deleted":"0","num_feature":"20","num_nodes":"7","size_leaf_vector":"1"}},{"base_weights":[3.014257E-2,6.0777437E-2,-2.526835E-1,-3.9255086E-2,3.7606925E-2],"categories":[0,1,2,3,4,5,6,7,8,9,10,11,12,13,0,1,2,3,4,5,6,7,8,9,10,11,12,13,14,15,16,17,18,19,20,21,22,23,24,25,26,27,28,29,30,31,32,33,34,35,36,37,38,39,40,41,42,43,44,45,46,47,48,49,50],"categories_nodes":[0,2],"categories_segments":[0,14],"categories_sizes":[14,51],"default_left":[1,0,1,0,0],"id":38,"left_children":[1,-1,3,-1,-1],"loss_changes":[9.286012E0,0E0,3.5098953E0,0E0,0E0],"parents":[2147483647,0,0,2,2],"right_children":[2,-1,4,-1,-1],"split_conditions":[NaN,6.0777437E-2,NaN,-3.9255086E-2,3.7606925E-2],"split_indices":[7,0,11,0,0],"split_type":[1,0,1,0,0],"sum_hessian":[5.490056E1,1.7667757E1,3.7232803E1,3.076478E1,6.4680233E0],"tree_param":{"num_deleted":"0","num_feature":"20","num_nodes":"5","size_leaf_vector":"1"}},{"base_weights":[2.424232E-2,3.2142475E-1,-4.1902732E-2,-3.0740818E-2,4.6792433E-1,9.771585E-2,3.0588955E-2],"categories":[0,1,2,3,4,5,6,7,8,9,10,0,1,2,3,4,5,6,7,8,9,10,11,12,13,14,15,16,17,18,19,20,21,22,23,24,25,26,27,28,29,30,31,32,33,34,35,36,37,38,39,40,41,42,43,44,45,46,47,48,49,50,51,52,53,54,55,56,57,58,59,60,61,62,63,64,65,66,67,68,69,70,71,72,73,74,75,76,77,78,79,80,81,82,83,84,85,86,87,88,89,90,91,92,93,94,95,96,97,98,99,100,101,102,103,104,105,106,107,108,109,110,111,112,113,114,115,116,117,118,119,120,121,122,123,124,125,126,127,128,129,130,131,132,133,134,135,136,137,138,139,140,141,142,143,144,145,146,147,148,149,150,151,152,153,154,155,156,157,158,159,160,161,162,163,164,165,166,167,168,169,170,171,172,173,174,175,176,177,178,179,180,181,182,183,184,185,186,187,188,189,190,191,192,193,194,195,196,197,198,199,200,201,202,203,204,205,206,207,208,209,210,211,212,213,214,215,216,217,218,219,220,221,222,223,224,225,226,227,228,229,230,231,232,233,234,235,236,237,238,239,240,241,242,243,244,245,246,247,248,249,250,251,252,253,254,255,256,257,258,259,260,261,262,263,264,265,266,267,268,269,270,271,272,273,274,275,276,277,278,279,280,281,282,283,284,285,286,287,288,289,290,291,292,293,294,295,296,297,298,299,300,301,302,303,304,305,306,307,308,309,310,311,312,313,314,315,316,317,318,319,320,321,322,0,1,2,3,4,5,6,7,8,9,10,11,12,13,14,15,16,17,18,19,20,21,22,23,24,25,26,27,28,29,30,31,32,33,34,35,36,37,38,39,40,41,42,43,44,45,46,47,48,49,50,51,52,53,54,55,56,57,58,59,60,61,62,63,64,65,66,67,68,69,70,71,72,73,74,75,76,77,78,79,80,81,82,83,84,85,86,87,88,89,90,91,92,93,94,95,96,97,98,99,100,101,102,103,104,105,106,107,108,109,110,111,112,113,114,115,116,117,118,119,120,121,122,123,124,125,126,127,128,129,130,131,132,133,134,135,136,137,138,139,140,141,142,143,144,145,146,147,148,149,150,151,152,153,154,155,156,157,158,159,160,161,162,163,164,165,166,167,168,169,170,171,172,173,174,175,176,177,178,179,180,181,182,183,184,185,186,187,188,189,190,191,192,193,194,195,196,197,198,199,200,201,202,203,204,205,206,207,208,209,210,211,212,213,214,215,216,217,218,219,220,221,222,223,224,225,226,227,228,229,230,231,232,233,234,235,236,237,238,239,240,241,242,243,244,245,246,247,248,249,250,251,252,253,254,255,256,257,258,259,260,261,262,263,264,265,266,267,268,269,270,271,272,273,274,275,276,277,278,279,280,281,282,283,284,285,286,287,288,289,290,291,292,293,294,295,296,297,298,299,300,301,302,303,304,305,306,307,308,309,310,311,312,313,314,315,316,317,318,319,320,321,322,323,324,325,326,327,328,329,330,331,332,333,334,335,336,337,338,339,340],"categories_nodes":[0,1,4],"categories_segments":[0,11,334],"categories_sizes":[11,323,341],"default_left":[1,0,0,0,0,0,0],"id":39,"left_children":[1,3,-1,-1,5,-1,-1],"loss_changes":[8.248647E0,3.5928917E0,0E0,0E0,2.239348E0,0E0,0E0],"parents":[2147483647,0,0,1,1,4,4],"right_children":[2,4,-1,-1,6,-1,-1],"split_conditions":[NaN,NaN,-4.1902732E-2,-3.0740818E-2,NaN,9.771585E-2,3.0588955E-2],"split_indices":[7,18,0,0,15,0,0],"split_type":[1,1,0,0,1,0,0],"sum_hessian":[6.0594486E1,3.643928E1,2.4155207E1,6.6776905E0,2.976159E1,5.969722E0,2.3791868E1],"tree_param":{"num_deleted":"0","num_feature":"20","num_nodes":"7","size_leaf_vector":"1"}},{"base_weights":[-1.800703E-2,-5.3332474E-2,1.0337082E-1,-4.2863805E-2,6.9558226E-2,3.3353403E-2,-3.5054687E-2],"categories":[0,1,2,3,4,5,6,7,8,9,10,11,12,13,14,15,16,17,18,19,20,21,22,23,24,25,26,27,28,29,30,31,32,33,0,1,2,3,4,5,6,7,8,9,10,11,12,13,14,15,16,17,18,19,20,21,22,23,24,25,26,27,28,29,30,31,32,33,34,35,36,37,38,39,40,41,42,43,44,45,46,47,48,49,50,51,52,53,54,55,56,57,58,59,60,0,1,2,3,4,5,6,7,8,10,12,14,15,16,17,18,19,20,21],"categories_nodes":[0,2,3],"categories_segments":[0,34,95],"categories_sizes":[34,61,19],"default_left":[1,0,1,1,0,0,0],"id":40,"left_children":[1,-1,3,5,-1,-1,-1],"loss_changes":[3.8772984E0,0E0,4.3855286E0,4.8973427E0,0E0,0E0,0E0],"parents":[2147483647,0,0,2,2,3,3],"right_children":[2,-1,4,6,-1,-1,-1],"split_conditions":[NaN,-5.3332474E-2,NaN,NaN,6.9558226E-2,3.3353403E-2,-3.5054687E-2],"split_indices":[4,0,0,7,0,0,0],"split_type":[1,0,1,1,0,0,0],"sum_hessian":[6.0107605E1,1.0811738E1,4.9295868E1,4.027772E1,9.018148E0,1.8078157E1,2.2199564E1],"tree_param":{"num_deleted":"0","num_feature":"20","num_nodes":"7","size_leaf_vector":"1"}},{"base_weights":[-7.6161206E-2,-3.0063325E-1,5.737244E-2,3.9006736E-2,-4.1339815E-2],"categories":[0,1,2,3,4,5,6,7,8,9,10,11,12,13,14,15,16,17,18,19,20,21,22,23,24,25,26,27,28,29,30,31,32,33,34,35,36,37,38,39,40,41,42,43,44,45,46,47,48,49,50,51,52,53,54,55,56,57,58,59,60,61,62,0,1,2,3,4,5,6,7,8,9,10,11,12,13,14,15,16,17,18,19,20,21,22,23,24,25,26,27,28,29,30,31,32,33,34,35,36,37,38,39,40,41,42,43,44,45,46,47,48,49,50,51,52,53,54,55,56,57,58,59,60,61,62,63,64,65,66,67,68,69,70,71,72,73,74,75,76,77,78,79,80,81,82,83,84,85,86,87,88,89,90,91,92,93,94,95,96,97,98,99,100,101,102,103,104,105,106,107,108,109,110,111,112,113,114,115,116,117,118,119,120,121,122,123,124,125,126,127,128,129,130,131,132,133,134,135,136,137,138,139,140,141,142,143,144,145,146,147,148,149,150,151,152,153,154,155,156,157,158,159,160,161,162,163,164,165,166,167,168,169,170,171,172,173,174,175,176,177,178,179,180,181,182,183,184,185,186,187,188,189,190,191,192,193,194,195,196,197,198,199,200,201,202,203,204,205,206,207,208,209,210,211,212,213,214,215,216,217,218,219,220,221,222,223,224,225,226,227,228,229,230,231,232,233,234,235,236,237,238,239,240,241,242,243,244,245,246,247,248,249,250,251,252,253,254,255,256,257,258,259,260,261,262,263,264,265,266,267,268,269,270,271,272,273,274,275,276,277,278,279,280,281,282,283,284,285,286,287,288,289,290,291,292,293,294,295,296,297,298,299,300,301,302,303,304,305,306,307,308,309,310,311,312,313,314,315,316,317,318,319,320,321,322,323,324,325,326,327,328,329,330,331,332,333,334,335,336,337,338,339,340],"categories_nodes":[0,1],"categories_segments":[0,63],"categories_sizes":[63,341],"default_left":[1,0,0,0,0],"id":41,"left_children":[1,3,-1,-1,-1],"loss_changes":[9.238737E0,3.8101873E0,0E0,0E0,0E0],"parents":[2147483647,0,0,1,1],"right_children":[2,4,-1,-1,-1],"split_conditions":[NaN,NaN,5.737244E-2,3.9006736E-2,-4.1339815E-2],"split_indices":[14,17,0,0,0],"split_type":[1,1,0,0,0],"sum_hessian":[6.1148243E1,4.5849216E1,1.5299025E1,6.0897193E0,3.97595E1],"tree_param":{"num_deleted":"0","num_feature":"20","num_nodes":"5","size_leaf_vector":"1"}},{"base_weights":[-1.4756946E-2,-2.2694066E-1,7.32472E-2,3.0251885E-2,-3.0958936E-2],"categories":[0,1,2,3,4,5,6,7,8,9,10,11,12,13,14,15,16,17,18,19,20,21,22,23,24,25,26,27,28,29,30,31,32,33,34,35,36,37,38,39,40,41,42,43,44,45,46,47,48,49,50,51,52,53,0,1,2,3,4,5,6,7,8,9,10,11,12,13,14,15,16,17,18,19,20,21,22,23,24,25,26,27,28,29,30,31,32,33,34,35,36,37,38,39,40,41,42,43,44,45,46,47,48,49,50,51,52,53,54,55,56,57,58,59,60,61,62,63,64,65,66,67,68,69,70,71,72,73,74,75,76,77,78,79,80,81,82,83,84,85,86,87,88,89,90,91,92,93,94,95,96,97,98,99,100,101,102,103,104,105,106,107,108,109,110,111,112,113,114,115,116,117,118,119,120,121,122,123,124,125,126,127,128,129,130,131,132,133,134,135,136,137,138,139,140,141,142,143,144,145,146,147,148,149,150,151,152,153,154,155,156,157,158,159,160,161,162,163,164,165,166,167,168,169,170,171,172,173,174,175,176,177,178,179,180,181,182,183,184,185,186,187,188,189,190,191,192,193,194,195,196,197,198,199,200,201,202,203,204,205,206,207,208,209,210,211,212,213,214,215,216,217,218,219,220,221,222,223,224,225,226,227,228,229,230,231,232,233,234,235,236,237,238,239,240,241,242,243,244,245,246,247,248,249,250,251,252,253,254,255,256,257,258,259,260,261,262,263,264,265,266,267,268,269,270,271,272,273,274,275,276,277,278,279,280,281,282,283,284,285,286,287,288,289,290,291,292,293,294,295,296,297,298,299,300,301,302,303,304,305,306,307,308,309,310,311,312,313,314,315,316,317,318,319,320,321,322,323,324,325,326,327,328,329,330,331,332,333,334,335,336,337,338,339,340,341],"categories_nodes":[0,1],"categories_segments":[0,54],"categories_sizes":[54,342],"default_left":[1,0,0,0,0],"id":42,"left_children":[1,3,-1,-1,-1],"loss_changes":[8.410839E0,1.8993006E0,0E0,0E0,0E0],"parents":[2147483647,0,0,1,1],"right_children":[2,4,-1,-1,-1],"split_conditions":[NaN,NaN,7.32472E-2,3.0251885E-2,-3.0958936E-2],"split_indices":[16,19,0,0,0],"split_type":[1,1,0,0,0],"sum_hessian":[5.1000134E1,4.026324E1,1.0736891E1,5.0772624E0,3.5185978E1],"tree_param":{"num_deleted":"0","num_feature":"20","num_nodes":"5","size_leaf_vector":"1"}},{"base_weights":[-9.008135E-2,3.3958584E-1,-4.231057E-1,1.1492163E-1,6.615269E-2,6.1032325E-3,-5.273301E-2,5.2668493E-2,-4.8148703E-2],"categories":[0,1,2,3,4,5,6,7,8,9,11,12,0,1,2,3,4,5,6,7,8,9,10,11,12,13,14,15,16,17,18,19,20,21,22,23,24,25,26,27,28,29,30,31,32,33,34,35,36,37,38,39,40,41,42,43,44,45,46,47,48,49,50,51,52,53,54,55,56,57,58,59,60,61,62,63,64,65,66,67,68,69,70,71,72,73,74,75,76,77,78,79,80,81,82,83,84,85,86,87,88,89,90,91,92,93,94,95,96,97,98,99,100,101,102,103,104,105,106,107,108,109,110,111,112,113,114,115,116,117,118,119,120,121,122,123,124,125,126,127,128,129,130,131,132,133,134,135,136,137,138,139,140,141,142,143,144,145,146,147,148,149,150,151,152,153,154,155,156,157,158,159,160,161,162,163,164,165,166,167,168,169,170,171,172,173,174,175,176,177,178,179,180,181,182,183,184,185,186,187,188,189,190,191,192,193,194,195,196,197,198,199,200,201,202,203,204,205,206,207,208,209,210,211,212,213,214,215,216,217,218,219,220,221,222,223,224,225,226,227,228,229,230,231,232,233,234,235,236,237,238,239,240,241,242,243,244,245,246,247,248,249,250,251,252,253,254,255,256,257,258,259,260,261,262,263,264,265,266,267,268,269,270,271,272,273,274,275,276,277,278,279,280,281,282,283,284,285,286,287,288,289,290,291,292,293,294,295,296,297,298,299,300,301,302,303,304,305,306,307,308,309,310,311,312,313,314,315,316,317,318,319,320,321,322,0,1,2,3,4,5,6,7,8,9,10,11,12,13,14,15,16,17,18,19,20,21,22,23,24,25,26,0,1,2,3,4,5,6,7,8,9,10,11,12,13,14,15,16,17],"categories_nodes":[0,1,2,4],"categories_segments":[0,12,335,362],"categories_sizes":[12,323,27,18],"default_left":[1,0,1,0,1,0,0,0,0],"id":43,"left_children":[1,3,5,-1,7,-1,-1,-1,-1],"loss_changes":[8.163996E0,5.464902E0,1.6479778E0,0E0,5.24001E0,0E0,0E0,0E0,0E0],"parents":[2147483647,0,0,1,1,2,2,4,4],"right_children":[2,4,6,-1,8,-1,-1,-1,-1],"split_conditions":[NaN,NaN,NaN,1.1492163E-1,NaN,6.1032325E-3,-5.273301E-2,5.2668493E-2,-4.8148703E-2],"split_indices":[7,18,3,0,5,0,0,0,0],"split_type":[1,1,1,0,1,0,0,0,0],"sum_hessian":[5.5050983E1,2.4029055E1,3.1021929E1,5.2578235E0,1.877123E1,5.5687337E0,2.5453196E1,1.0217331E1,8.553901E0],"tree_param":{"num_deleted":"0","num_feature":"20","num_nodes":"9","size_leaf_vector":"1"}},{"base_weights":[3.0806296E-2,8.500982E-2,-1.1865619E-1,1.9542819E-2,-2.919454E-2],"categories":[0,1,2,3,4,5,6,7,8,9,10,11,12,13,14,15,16,17,18,19,20,21,22,23,24,25,26,27,28,29,30,31,32,33,34,35,36,37,38,39,40,41,42,43,44,45,46,47,48,49,50,51,52,53,54,55,56,57,58,59,60,61,62,63,64,65,66,67,68,69,70,71,72,73,74,75,76,77,78,79,80,81,82,83,84,85,86,87,88,89,90,91,92,93,94,95,96,97,98,99,100,101,102,103,104,105,106,107,108,109,110,111,112,113,114,115,116,117,118,119,120,121,122,123,124,125,126,127,128,129,130,131,132,133,134,135,136,137,138,139,140,141,142,143,144,145,146,147,148,149,150,151,152,153,154,155,156,157,158,159,160,161,162,163,164,165,166,167,168,169,170,171,172,173,174,175,176,177,178,179,180,181,182,183,184,185,186,187,188,189,190,191,192,193,194,195,196,197,198,199,200,201,202,203,204,205,206,207,208,209,210,211,212,213,214,215,216,217,218,219,220,221,222,223,224,225,226,227,228,229,230,231,232,233,234,235,236,237,238,239,240,241,242,243,244,245,246,247,248,249,250,251,252,253,254,255,256,257,258,259,260,261,262,263,264,265,266,267,268,269,270,271,272,273,274,275,276,277,278,279,280,281,282,283,284,285,286,287,288,289,290,291,292,293,294,295,296,297,298,299,300,301,302,303,304,305,306,307,308,309,310,311,312,313,314,315,316,317,318,319,320,321,322,323,324,325,326,327,328,329,330,331,332,333,334,335,336,337,338,339,340,341,342,0,1,2,3,4,5,6,7,8,9,10,13,14,15],"categories_nodes":[0,2],"categories_segments":[0,343],"categories_sizes":[343,14],"default_left":[0,0,1,0,0],"id":44,"left_children":[1,-1,3,-1,-1],"loss_changes":[7.3399825E0,0E0,2.8259954E0,0E0,0E0],"parents":[2147483647,0,0,2,2],"right_children":[2,-1,4,-1,-1],"split_conditions":[NaN,8.500982E-2,NaN,1.9542819E-2,-2.919454E-2],"split_indices":[14,0,7,0,0],"split_type":[1,0,1,0,0],"sum_hessian":[5.811729E1,8.243285E0,4.9874004E1,1.768764E1,3.2186367E1],"tree_param":{"num_deleted":"0","num_feature":"20","num_nodes":"5","size_leaf_vector":"1"}},{"base_weights":[4.9647212E-2,3.5638008E-1,-1.3622922E-2,1.6906618E-1,8.632246E-2,-1.9247761E-2,3.9717864E-2],"categories":[0,1,2,3,4,5,6,7,8,9,10,11,12,16,17,18,19,20,21,22,23,24,25,0,1,2,3,4,5,6,7,8,9,10,11,12,13,14,15,16,17,18,19,20,21,22,23,24,25,26,27,28,29,30,31,32,33,34,35,36,37,38,39,40,41,42,43,44,45,46,47,48,49,50,51,52,53,54,55,56,57,58,59,60,61,0,1,2,3,4,5,6,7,8,9,10,11,12,13,14,15,16,17,18,19,20,21,22,23],"categories_nodes":[0,1,3],"categories_segments":[0,23,85],"categories_sizes":[23,62,24],"default_left":[1,1,0,1,0,0,0],"id":45,"left_children":[1,3,-1,5,-1,-1,-1],"loss_changes":[3.5652282E0,2.089917E0,0E0,1.597169E0,0E0,0E0,0E0],"parents":[2147483647,0,0,1,1,3,3],"right_children":[2,4,-1,6,-1,-1,-1],"split_conditions":[NaN,NaN,-1.3622922E-2,NaN,8.632246E-2,-1.9247761E-2,3.9717864E-2],"split_indices":[8,15,0,3,0,0,0],"split_type":[1,1,0,1,0,0,0],"sum_hessian":[6.068052E1,2.2550476E1,3.8130043E1,1.7439096E1,5.11138E0,6.8068643E0,1.0632233E1],"tree_param":{"num_deleted":"0","num_feature":"20","num_nodes":"7","size_leaf_vector":"1"}},{"base_weights":[7.599572E-2,-1.398864E-1,7.0026565E-1,-3.107979E-1,6.769307E-2,1.616217E-2,9.6963204E-2,-8.543452E-2,-5.521335E-2,-3.0242587E-2,4.3765496E-2],"categories":[0,1,2,3,4,5,6,7,8,9,10,11,12,13,14,15,16,17,18,19,20,21,22,23,24,25,26,27,28,29,30,31,32,33,34,35,36,37,38,39,40,41,42,43,44,45,46,47,48,49,50,51,52,53,54,55,56,57,58,59,60,61,62,0,1,2,3,4,5,6,7,8,9,10,11,12,13,14,15,16,17,18,19,20,21,22,23,24,25,26,27,28,29,30,31,32,33,34,35,36,37,38,39,40,41,42,0,1,2,3,4,5,6,7,8,9,10,11,12,13,14,15,16,17,18,19,20,21,22,23,24,25,26,27,28,29,30,31,32,33,34,35,0,1,2,3,4,5,6,7,8,9,10,11,12,13,14,15,16,17,18,19,0,1,2,3,4,5,6,7,8,9,10,11,12,13,14,15,16,17,18,19,20,21,22,23],"categories_nodes":[0,1,2,3,7],"categories_segments":[0,63,106,142,162],"categories_sizes":[63,43,36,20,24],"default_left":[1,1,1,1,0,0,0,1,0,0,0],"id":46,"left_children":[1,3,5,7,-1,-1,-1,9,-1,-1,-1],"loss_changes":[7.766019E0,6.228856E0,1.9887366E0,1.9291208E0,0E0,0E0,0E0,2.399438E0,0E0,0E0,0E0],"parents":[2147483647,0,0,1,1,2,2,3,3,7,7],"right_children":[2,4,6,8,-1,-1,-1,10,-1,-1,-1],"split_conditions":[NaN,NaN,NaN,NaN,6.769307E-2,1.616217E-2,9.6963204E-2,NaN,-5.521335E-2,-3.0242587E-2,4.3765496E-2],"split_indices":[13,9,4,4,0,0,0,4,0,0,0],"split_type":[1,1,1,1,0,0,0,1,0,0,0],"sum_hessian":[5.5897934E1,4.2111168E1,1.3786768E1,3.533677E1,6.7743955E0,5.129489E0,8.657279E0,1.8973236E1,1.6363533E1,1.3708454E1,5.2647824E0],"tree_param":{"num_deleted":"0","num_feature":"20","num_nodes":"11","size_leaf_vector":"1"}},{"base_weights":[-8.6126015E-2,2.7121913E-1,-4.1237906E-2,8.710298E-2,4.9426332E-2,5.012972E-2,-3.3064906E-2],"categories":[0,1,2,3,4,5,6,7,8,9,10,11,12,13,14,15,16,17,18,19,20,21,22,23,24,25,26,0,1,2,3,4,5,6,7,8,9,10,11,12,13,14,15,16,17,18,19,20,21,22,23,24,25,26,27,28,29,30,31,32,33,34,35,36,37,38,39,40,41,42,43,44,45,46,47,48,49,50,51,52,53,54,55,56,57,58,59,60,61,62,63,64,65,66,67,68,69,70,71,72,73,74,75,76,77,78,79,80,81,82,83,84,85,86,87,88,89,90,91,92,93,94,95,96,97,98,99,100,101,102,103,104,105,106,107,108,109,110,111,112,113,114,115,116,117,118,119,120,121,122,123,124,125,126,127,128,129,130,131,132,133,134,135,136,137,138,139,140,141,142,143,144,145,146,147,148,149,150,151,152,153,154,155,156,157,158,159,160,161,162,163,164,165,166,167,168,169,170,171,172,173,174,175,176,177,178,179,180,181,182,183,184,185,186,187,188,189,190,191,192,193,194,195,196,197,198,199,200,201,202,203,204,205,206,207,208,209,210,211,212,213,214,215,216,217,218,219,220,221,222,223,224,225,226,227,228,229,230,231,232,233,234,235,236,237,238,239,240,241,242,243,244,245,246,247,248,249,250,251,252,253,254,255,256,257,258,259,260,261,262,263,264,265,266,267,268,269,270,271,272,273,274,275,276,277,278,279,280,281,282,283,284,285,286,287,288,289,290,291,292,293,294,295,296,297,298,299,300,301,302,303,304,305,306,307,308,309,310,311,312,313,314,315,316,317,318,319,320,321,322,323,324,325,326,327,328,329,330,0,1,2,3,4,5,6,7,8,9,10,11,12,13,14],"categories_nodes":[0,1,4],"categories_segments":[0,27,358],"categories_sizes":[27,331,15],"default_left":[1,0,0,0,1,0,0],"id":47,"left_children":[1,3,-1,-1,5,-1,-1],"loss_changes":[7.1233873E0,3.8556442E0,0E0,0E0,4.022292E0,0E0,0E0],"parents":[2147483647,0,0,1,1,4,4],"right_children":[2,4,-1,-1,6,-1,-1],"split_conditions":[NaN,NaN,-4.1237906E-2,8.710298E-2,NaN,5.012972E-2,-3.3064906E-2],"split_indices":[4,18,0,0,6,0,0],"split_type":[1,1,0,0,1,0,0],"sum_hessian":[5.9141064E1,2.8306082E1,3.0834982E1,6.851052E0,2.145503E1,9.656041E0,1.1798989E1],"tree_param":{"num_deleted":"0","num_feature":"20","num_nodes":"7","size_leaf_vector":"1"}},{"base_weights":[-1.658901E-2,3.590265E-1,-3.6182735E-2,8.067449E-2,1.0468675E-1,6.50193E-2,-3.3498384E-2],"categories":[0,1,2,3,4,5,6,7,8,9,10,12,14,17,0,1,2,3,4,5,6,7,8,9,10,11,12,13,14,15,16,17,18,19,20,21,22,0,1,2,3,4,5,6,7,8,9,10,11,12,13,14,15],"categories_nodes":[0,1,4],"categories_segments":[0,14,37],"categories_sizes":[14,23,16],"default_left":[1,1,0,0,1,0,0],"id":48,"left_children":[1,3,-1,-1,5,-1,-1],"loss_changes":[7.8909354E0,3.2366848E0,0E0,0E0,4.954357E0,0E0,0E0],"parents":[2147483647,0,0,1,1,4,4],"right_children":[2,4,-1,-1,6,-1,-1],"split_conditions":[NaN,NaN,-3.6182735E-2,8.067449E-2,NaN,6.50193E-2,-3.3498384E-2],"split_indices":[7,5,0,0,7,0,0],"split_type":[1,1,0,0,1,0,0],"sum_hessian":[5.884899E1,2.8165405E1,3.0683586E1,9.41685E0,1.8748554E1,8.153527E0,1.0595028E1],"tree_param":{"num_deleted":"0","num_feature":"20","num_nodes":"7","size_leaf_vector":"1"}},{"base_weights":[5.341884E-3,9.645825E-2,-1.1779584E-1,-5.3335965E-2,-3.8207036E-2,-2.2997925E-2,1.909628E-1,-3.069504E-2,4.558171E-2],"categories":[0,1,2,3,4,5,6,7,8,9,10,11,12,13,14,15,16,17,18,19,20,21,22,23,24,25,26,27,28,29,30,31,32,33,34,35,36,37,38,39,40,41,42,43,44,45,46,47,48,49,50,51,52,53,54,55,56,57,58,59,60,61,62,63,64,65,66,67,68,69,70,71,72,73,74,75,76,77,78,79,80,81,82,83,84,85,86,87,88,89,90,91,92,93,94,95,96,97,98,99,100,101,102,103,104,105,106,107,108,109,110,111,112,113,114,115,116,117,118,119,120,121,122,123,124,125,126,127,128,129,130,131,132,133,134,135,136,137,138,139,140,141,142,143,144,145,146,147,148,149,150,151,152,153,154,155,156,157,158,159,160,161,162,163,164,165,166,167,168,169,170,171,172,173,174,175,176,177,178,179,180,181,182,183,184,185,186,187,188,189,190,191,192,193,194,195,196,197,198,199,200,201,202,203,204,205,206,207,208,209,210,211,212,213,214,215,216,217,218,219,220,221,222,223,224,225,226,227,228,229,230,231,232,233,234,235,236,237,238,239,240,241,242,243,244,245,246,247,248,249,250,251,252,253,254,255,256,257,258,259,260,261,262,263,264,265,266,267,268,269,270,271,272,273,274,275,276,277,278,279,280,281,282,283,284,285,286,287,288,289,290,291,292,293,294,295,296,297,298,299,300,301,302,303,304,305,306,307,308,309,310,311,312,313,314,315,316,317,318,319,320,321,322,323,324,325,326,327,328,329,330,331,0,1,2,3,4,5,6,7,8,9,10,11,12,13,14,15,16,17,18,19,20,21,22,23,24,25,26,27,28,29,30,31,32,33,34,35,36,37,0,1,2,3,4,5,6,7,8,9,11,0,1,2,3,4,5,6,7,8,9,10,11,12,13,14,15,16,17,18,19,20,21],"categories_nodes":[0,2,4,6],"categories_segments":[0,332,370,381],"categories_sizes":[332,38,11,22],"default_left":[0,0,1,0,1,0,1,0,0],"id":49,"left_children":[1,-1,3,-1,5,-1,7,-1,-1],"loss_changes":[7.1392756E0,0E0,1.7525332E0,0E0,2.0684044E0,0E0,2.9795146E0,0E0,0E0],"parents":[2147483647,0,0,2,2,4,4,6,6],"right_children":[2,-1,4,-1,6,-1,8,-1,-1],"split_conditions":[NaN,9.645825E-2,NaN,-5.3335965E-2,NaN,-2.2997925E-2,NaN,-3.069504E-2,4.558171E-2],"split_indices":[2,0,5,0,6,0,3,0,0],"split_type":[1,0,1,0,1,0,1,0,0],"sum_hessian":[5.8479584E1,5.8755774E0,5.2604008E1,7.538926E0,4.5065083E1,2.453247E1,2.0532612E1,7.074311E0,1.3458301E1],"tree_param":{"num_deleted":"0","num_feature":"20","num_nodes":"9","size_leaf_vector":"1"}},{"base_weights":[-3.6382124E-2,4.453966E-2,-2.0639503E-1,-3.1296935E-2,1.764029E-2],"categories":[0,1,2,3,4,5,6,7,8,9,10,11,12,15,16,17,18,19,20,21,22,23,24,25,0,1,2,3,4,5,6,7,8,9,10,11,12,13,14,15,16,17,18,19,20,21,22,23,24,25,26,27,28,29,30,31,32,33,34,35,36,37,38,39,40,41,42,43,44,45,46,47,48,49,50,51,52,53,54,55,56,57,58,59,60],"categories_nodes":[0,2],"categories_segments":[0,24],"categories_sizes":[24,61],"default_left":[1,0,1,0,0],"id":50,"left_children":[1,-1,3,-1,-1],"loss_changes":[5.07834E0,0E0,1.9188626E0,0E0,0E0],"parents":[2147483647,0,0,2,2],"right_children":[2,-1,4,-1,-1],"split_conditions":[NaN,4.453966E-2,NaN,-3.1296935E-2,1.764029E-2],"split_indices":[8,0,0,0,0],"split_type":[1,0,1,0,0],"sum_hessian":[5.987777E1,1.5195975E1,4.4681793E1,3.509379E1,9.588004E0],"tree_param":{"num_deleted":"0","num_feature":"20","num_nodes":"5","size_leaf_vector":"1"}},{"base_weights":[-3.2061435E-2,7.321365E-2,-1.3741785E-1,-2.5384385E-2,3.3043172E-2],"categories":[0,1,2,3,4,5,6,7,8,9,10,11,12,13,14,15,16,17,18,19,20,21,22,23,24,25,26,27,28,29,30,31,32,33,34,35,36,37,38,39,40,41,42,43,44,45,46,47,48,49,50,51,52,53,54,55,56,57,58,59,60,61,62,63,64,65,66,67,68,69,70,71,72,73,74,75,76,77,78,79,80,81,82,83,84,85,86,87,88,89,90,91,92,93,94,95,96,97,98,99,100,101,102,103,104,105,106,107,108,109,110,111,112,113,114,115,116,117,118,119,120,121,122,123,124,125,126,127,128,129,130,131,132,133,134,135,136,137,138,139,140,141,142,143,144,145,146,147,148,149,150,151,152,153,154,155,156,157,158,159,160,161,162,163,164,165,166,167,168,169,170,171,172,173,174,175,176,177,178,179,180,181,182,183,184,185,186,187,188,189,190,191,192,193,194,195,196,197,198,199,200,201,202,203,204,205,206,207,208,209,210,211,212,213,214,215,216,217,218,219,220,221,222,223,224,225,226,227,228,229,230,231,232,233,234,235,236,237,238,239,240,241,242,243,244,245,246,247,248,249,250,251,252,253,254,255,256,257,258,259,260,261,262,263,264,265,266,267,268,269,270,271,272,273,274,275,276,277,278,279,280,281,282,283,284,285,286,287,288,289,290,291,292,293,294,295,296,297,298,299,300,301,302,303,304,305,306,307,308,309,310,311,312,313,314,315,316,317,318,319,320,321,322,323,324,325,326,327,328,329,330,331,332,333,334,335,336,337,338,339,340,341,342,343,344,345,346,347,348,349,350,351,352,353,354,355,356,357,358,359,360,0,1,2,3,4,5,6,7,8,9,10,11,12,13,14,15,16,17,18,19,20,21,22,23,24,25,26,27,28,29,30,31,32,33,34,35,36,37,38,39,40,41,42,43,44,45,46],"categories_nodes":[0,2],"categories_segments":[0,361],"categories_sizes":[361,47],"default_left":[0,0,1,0,0],"id":51,"left_children":[1,-1,3,-1,-1],"loss_changes":[4.6423087E0,0E0,2.830071E0,0E0,0E0],"parents":[2147483647,0,0,2,2],"right_children":[2,-1,4,-1,-1],"split_conditions":[NaN,7.321365E-2,NaN,-2.5384385E-2,3.3043172E-2],"split_indices":[17,0,14,0,0],"split_type":[1,0,1,0,0],"sum_hessian":[5.5409424E1,5.9926767E0,4.9416744E1,3.9935966E1,9.48078E0],"tree_param":{"num_deleted":"0","num_feature":"20","num_nodes":"5","size_leaf_vector":"1"}},{"base_weights":[-5.895857E-3,4.3502283E-1,-3.1473047E-1,7.115349E-1,-1.851185E-2,-4.326057E-2,3.1854607E-2,1.0142523E-1,1.9494263E-2],"categories":[0,1,2,3,4,5,6,7,8,9,10,11,12,13,14,15,16,17,18,19,20,21,22,23,24,25,26,27,28,29,30,0,1,2,3,4,5,6,7,8,9,10,11,0,1,2,3,4,5,6,7,8,9,10,11,12,13,14,15,16,17,18,19,20,21,22,23,24,25,26,27,28,29,30,31,32,33,34,35,36,37,38,39,40,41,42,43,44,45,46,47,48,49,50,0,1,2,3,4,5,6,7,8,9,10,11,12,13,14,15,16,17,18,19,20,21,22,23,24,25,26,27,28],"categories_nodes":[0,1,2,3],"categories_segments":[0,31,43,94],"categories_sizes":[31,12,51,29],"default_left":[1,1,1,1,0,0,0,0,0],"id":52,"left_children":[1,3,5,7,-1,-1,-1,-1,-1],"loss_changes":[8.16735E0,4.3691993E0,2.7699897E0,2.50729E0,0E0,0E0,0E0,0E0,0E0],"parents":[2147483647,0,0,1,1,2,2,3,3],"right_children":[2,4,6,8,-1,-1,-1,-1,-1],"split_conditions":[NaN,NaN,NaN,NaN,-1.851185E-2,-4.326057E-2,3.1854607E-2,1.0142523E-1,1.9494263E-2],"split_indices":[4,6,2,10,0,0,0,0,0],"split_type":[1,1,1,1,0,0,0,0,0],"sum_hessian":[5.7973186E1,2.3711716E1,3.4261467E1,1.6297514E1,7.4142017E0,2.9152103E1,5.109365E0,9.668517E0,6.6289973E0],"tree_param":{"num_deleted":"0","num_feature":"20","num_nodes":"9","size_leaf_vector":"1"}},{"base_weights":[1.380731E-2,7.214056E-2,-1.9060622E-1,4.1603502E-2,-2.7811578E-2],"categories":[0,1,2,3,4,5,6,7,8,9,10,11,12,13,14,15,16,17,18,19,20,21,22,23,24,25,26,27,28,29,30,31,32,33,34,35,36,37,38,39,40,41,42,43,44,45,46,47,48,49,50,51,52,53,54,55,56,57,58,59,60,61,62,63,64,65,66,67,68,69,70,71,72,73,74,75,76,77,78,79,80,81,82,83,84,85,86,87,88,89,90,91,92,93,94,95,96,97,98,99,100,101,102,103,104,105,106,107,108,109,110,111,112,113,114,115,116,117,118,119,120,121,122,123,124,125,126,127,128,129,130,131,132,133,134,135,136,137,138,139,140,141,142,143,144,145,146,147,148,149,150,151,152,153,154,155,156,157,158,159,160,161,162,163,164,165,166,167,168,169,170,171,172,173,174,175,176,177,178,179,180,181,182,183,184,185,186,187,188,189,190,191,192,193,194,195,196,197,198,199,200,201,202,203,204,205,206,207,208,209,210,211,212,213,214,215,216,217,218,219,220,221,222,223,224,225,226,227,228,229,230,231,232,233,234,235,236,237,238,239,240,241,242,243,244,245,246,247,248,249,250,251,252,253,254,255,256,257,258,259,260,261,262,263,264,265,266,267,268,269,270,271,272,273,274,275,276,277,278,279,280,281,282,283,284,285,286,287,288,289,290,291,292,293,294,295,296,297,298,299,300,301,302,303,304,305,306,307,308,309,310,311,312,313,314,315,316,317,318,319,320,321,322,323,324,0,1,2,3,4,5,6,7,8,9,10,11,12,13,14,15,16,17,18,19,20,21,22,23,24,25,26,27,28,29,30,31,32,33,34,35,36,37,38,39,40,41,42,43,44,45,46,47,48,49,50,51,52,53,54,55,56,57,58,59,60,61,62,63,64,65,66,67,68,69,70,71,72,73,74,75,76,77,78,79,80,81,82,83,84,85,86,87,88,89,90,91,92,93,94,95,96,97,98,99,100,101,102,103,104,105,106,107,108,109,110,111,112,113,114,115,116,117,118,119,120,121,122,123,124,125,126,127,128,129,130,131,132,133,134,135,136,137,138,139,140,141,142,143,144,145,146,147,148,149,150,151,152,153,154,155,156,157,158,159,160,161,162,163,164,165,166,167,168,169,170,171,172,173,174,175,176,177,178,179,180,181,182,183,184,185,186,187,188,189,190,191,192,193,194,195,196,197,198,199,200,201,202,203,204,205,206,207,208,209,210,211,212,213,214,215,216,217,218,219,220,221,222,223,224,225,226,227,228,229,230,231,232,233,234,235,236,237,238,239,240,241,242,243,244,245,246,247,248,249,250,251,252,253,254,255,256,257,258,259,260,261,262,263,264,265,266,267,268,269,270,271,272,273,274,275,276,277,278,279,280,281,282,283,284,285,286,287,288,289,290,291,292,293,294,295,296,297,298,299,300,301,302,303,304,305,306,307,308,309,310,311,312,313,314,315,316,317,318,319,320,321,322,323,324,325,326,327,328,329,330,331,332,333,334,335,336,337,338,339,340,341,342],"categories_nodes":[0,2],"categories_segments":[0,325],"categories_sizes":[325,343],"default_left":[0,0,0,0,0],"id":53,"left_children":[1,-1,3,-1,-1],"loss_changes":[8.55897E0,0E0,2.5557852E0,0E0,0E0],"parents":[2147483647,0,0,2,2],"right_children":[2,-1,4,-1,-1],"split_conditions":[NaN,7.214056E-2,NaN,4.1603502E-2,-2.7811578E-2],"split_indices":[13,0,18,0,0],"split_type":[1,0,1,0,0],"sum_hessian":[5.7222565E1,1.2258695E1,4.4963867E1,5.1951866E0,3.976868E1],"tree_param":{"num_deleted":"0","num_feature":"20","num_nodes":"5","size_leaf_vector":"1"}},{"base_weights":[7.843024E-2,3.3327383E-1,-2.3155848E-2,8.442865E-2,2.0415662E-1,4.734317E-2,5.410528E-2,-2.4406198E-2,3.8608026E-2],"categories":[0,1,2,3,4,5,6,7,8,9,12,14,16,0,1,2,3,4,5,6,7,8,9,10,11,12,13,14,15,16,17,18,0,1,2,3,4,5,6,7,8,9,10,11,12,13,14,15,16,17,18,19,20,21,22,23,24,25,26,27,28,29,30,31,32,33,34,35,36,37,38,39,40,41,42,43,44,45,46,47,48,49,50,51,52,53,54,55,56,57,58,0,1,2,3,4,5,6,7,8,9,10,11,12,13,14,15,16,17,18,19],"categories_nodes":[0,1,4,5],"categories_segments":[0,13,32,91],"categories_sizes":[13,19,59,20],"default_left":[1,1,0,0,1,1,0,0,0],"id":54,"left_children":[1,3,-1,-1,5,7,-1,-1,-1],"loss_changes":[5.1582885E0,2.183748E0,0E0,0E0,1.550059E0,2.2113636E0,0E0,0E0,0E0],"parents":[2147483647,0,0,1,1,4,4,5,5],"right_children":[2,4,-1,-1,6,8,-1,-1,-1],"split_conditions":[NaN,NaN,-2.3155848E-2,8.442865E-2,NaN,NaN,5.410528E-2,-2.4406198E-2,3.8608026E-2],"split_indices":[8,6,0,0,12,3,0,0,0],"split_type":[1,1,0,0,1,1,0,0,0],"sum_hessian":[6.3319035E1,3.470924E1,2.8609793E1,5.8837924E0,2.8825449E1,2.04481E1,8.37735E0,1.1142254E1,9.305845E0],"tree_param":{"num_deleted":"0","num_feature":"20","num_nodes":"9","size_leaf_vector":"1"}},{"base_weights":[9.3465544E-2,2.7704632E-1,-3.545734E-2,3.9064586E-1,-3.722723E-2,2.0198023E-3,6.1779E-1,-5.0298553E-2,3.2747887E-2,-1.2856716E-3,9.00891E-2],"categories":[0,1,2,3,4,5,6,7,8,9,11,0,1,2,3,4,5,6,7,8,9,10,11,12,13,14,15,16,17,18,19,20,21,22,23,24,25,26,27,28,29,30,31,32,33,34,35,36,37,38,39,40,41,42,43,44,45,46,0,1,2,3,4,5,6,7,8,9,10,11,12,13,14,15,16,17,18,19,20,21,0,1,2,3,4,5,6,7,8,9,10,11,12,13,14,15,0,1,2,3,4,5,6,7,8,9,10,11,12,13,14,15,16,17,18,19,20,21,22,23,24,25],"categories_nodes":[0,1,3,5,6],"categories_segments":[0,11,58,80,96],"categories_sizes":[11,47,22,16,26],"default_left":[1,1,0,1,0,1,1,0,0,0,0],"id":55,"left_children":[1,3,-1,5,-1,7,9,-1,-1,-1,-1],"loss_changes":[5.0666866E0,3.3474572E0,0E0,3.3032293E0,0E0,2.5991895E0,4.2290306E0,0E0,0E0,0E0,0E0],"parents":[2147483647,0,0,1,1,3,3,5,5,6,6],"right_children":[2,4,-1,6,-1,8,10,-1,-1,-1,-1],"split_conditions":[NaN,NaN,-3.545734E-2,NaN,-3.722723E-2,NaN,NaN,-5.0298553E-2,3.2747887E-2,-1.2856716E-3,9.00891E-2],"split_indices":[8,12,0,4,0,6,5,0,0,0,0],"split_type":[1,1,0,1,0,1,1,0,0,0,0],"sum_hessian":[5.940574E1,4.2410133E1,1.6995605E1,3.6434265E1,5.975869E0,1.381196E1,2.2622305E1,5.1991405E0,8.61282E0,7.3046875E0,1.5317617E1],"tree_param":{"num_deleted":"0","num_feature":"20","num_nodes":"11","size_leaf_vector":"1"}},{"base_weights":[1.872299E-2,-2.1479994E-1,3.6597943E-1,-5.377802E-2,-5.7255025E-3,-2.2910615E-2,5.4920193E-2],"categories":[0,1,2,3,4,5,6,9,0,1,2,3,4,5,6,7,8,9,10,11,12,13,14,15,16,17,18,19,20,21,22,23,24,25,0,1,2,3,4,5,6,7,8,9,10,11],"categories_nodes":[0,1,2],"categories_segments":[0,8,34],"categories_sizes":[8,26,12],"default_left":[1,1,1,0,0,0,0],"id":56,"left_children":[1,3,5,-1,-1,-1,-1],"loss_changes":[4.736953E0,1.7489897E0,2.6845703E0,0E0,0E0,0E0,0E0],"parents":[2147483647,0,0,1,1,2,2],"right_children":[2,4,6,-1,-1,-1,-1],"split_conditions":[NaN,NaN,NaN,-5.377802E-2,-5.7255025E-3,-2.2910615E-2,5.4920193E-2],"split_indices":[7,3,6,0,0,0,0],"split_type":[1,1,1,0,0,0,0],"sum_hessian":[5.6444885E1,3.3977283E1,2.24676E1,1.0348498E1,2.3628786E1,5.230173E0,1.7237427E1],"tree_param":{"num_deleted":"0","num_feature":"20","num_nodes":"7","size_leaf_vector":"1"}},{"base_weights":[-2.6819505E-2,6.793438E-2,-1.9873457E-1,-3.5061434E-2,2.9569128E-1,-1.2116306E-2,6.937658E-2],"categories":[0,1,2,3,4,5,6,7,8,9,10,11,12,13,14,15,16,17,18,19,20,21,22,23,24,25,26,27,28,29,30,31,32,33,34,35,36,37,38,39,40,41,42,43,44,45,46,47,48,49,50,51,52,53,54,55,56,57,58,59,60,61,62,63,64,65,66,67,68,69,70,71,72,73,74,75,76,77,78,79,80,81,82,83,84,85,86,87,88,89,90,91,92,93,94,95,96,97,98,99,100,101,102,103,104,105,106,107,108,109,110,111,112,113,114,115,116,117,118,119,120,121,122,123,124,125,126,127,128,129,130,131,132,133,134,135,136,137,138,139,140,141,142,143,144,145,146,147,148,149,150,151,152,153,154,155,156,157,158,159,160,161,162,163,164,165,166,167,168,169,170,171,172,173,174,175,176,177,178,179,180,181,182,183,184,185,186,187,188,189,190,191,192,193,194,195,196,197,198,199,200,201,202,203,204,205,206,207,208,209,210,211,212,213,214,215,216,217,218,219,220,221,222,223,224,225,226,227,228,229,230,231,232,233,234,235,236,237,238,239,240,241,242,243,244,245,246,247,248,249,250,251,252,253,254,255,256,257,258,259,260,261,262,263,264,265,266,267,268,269,270,271,272,273,274,275,276,277,278,279,280,281,282,283,284,285,286,287,288,289,290,291,292,293,294,295,296,297,298,299,300,301,302,303,304,305,306,307,308,309,310,311,312,313,314,315,316,317,318,319,320,321,322,323,324,325,326,327,328,329,330,0,1,2,3,4,5,6,7,8,9,10,11,12,13,14,15,16,17,18,19,20,21,22,23,24,25,26,27,28,29,30,31,32,33,34,35,36,37,38,39,40,41,42,43,44,45,46,47,48,49,50,51,52,53,54,55,56,0,1,2,3,4,5,6,7,8,9,10,11,12,13,14,15,16,17,18,19,20,21,22,23,24,25,26,27,28,29,30,31,32],"categories_nodes":[0,2,4],"categories_segments":[0,331,388],"categories_sizes":[331,57,33],"default_left":[0,0,1,0,1,0,0],"id":57,"left_children":[1,-1,3,-1,5,-1,-1],"loss_changes":[7.0946627E0,0E0,3.623886E0,0E0,2.0020888E0,0E0,0E0],"parents":[2147483647,0,0,2,2,4,4],"right_children":[2,-1,4,-1,6,-1,-1],"split_conditions":[NaN,6.793438E-2,NaN,-3.5061434E-2,NaN,-1.2116306E-2,6.937658E-2],"split_indices":[18,0,0,0,5,0,0],"split_type":[1,0,1,0,1,0,0],"sum_hessian":[5.6328236E1,1.045037E1,4.5877865E1,3.5319225E1,1.055864E1,5.497457E0,5.061182E0],"tree_param":{"num_deleted":"0","num_feature":"20","num_nodes":"7","size_leaf_vector":"1"}},{"base_weights":[7.0483826E-2,6.885259E-2,-1.2275725E-1,3.4809362E-2,-2.7816376E-2],"categories":[0,1,2,3,4,5,6,7,8,9,10,11,12,13,14,15,16,17,18,19,20,21,22,23,24,25,26,27,28,29,30,31,32,33,34,35,36,37,38,39,40,41,42,43,44,45,46,47,48,49,50,51,52,53,54,55,56,57,58,59,60,61,62,63,64,65,66,67,68,69,70,71,72,73,74,75,76,77,78,79,80,81,82,83,84,85,86,87,88,89,90,91,92,93,94,95,96,97,98,99,100,101,102,103,104,105,106,107,108,109,110,111,112,113,114,115,116,117,118,119,120,121,122,123,124,125,126,127,128,129,130,131,132,133,134,135,136,137,138,139,140,141,142,143,144,145,146,147,148,149,150,151,152,153,154,155,156,157,158,159,160,161,162,163,164,165,166,167,168,169,170,171,172,173,174,175,176,177,178,179,180,181,182,183,184,185,186,187,188,189,190,191,192,193,194,195,196,197,198,199,200,201,202,203,204,205,206,207,208,209,210,211,212,213,214,215,216,217,218,219,220,221,222,223,224,225,226,227,228,229,230,231,232,233,234,235,236,237,238,239,240,241,242,243,244,245,246,247,248,249,250,251,252,253,254,255,256,257,258,259,260,261,262,263,264,265,266,267,268,269,270,271,272,273,274,275,276,277,278,279,280,281,282,283,284,285,286,287,288,289,290,291,292,293,294,295,296,297,298,299,300,301,302,303,304,305,306,307,308,309,310,311,312,313,314,315,316,317,318,319,320,321,322,323,324,0,1,2,3,4,5,6,7,8,9,10,11,12,13,14,15,16,17,18,19,20,21,22,23,24,25,26],"categories_nodes":[0,2],"categories_segments":[0,325],"categories_sizes":[325,27],"default_left":[0,0,1,0,0],"id":58,"left_children":[1,-1,3,-1,-1],"loss_changes":[7.3938303E0,0E0,3.5705197E0,0E0,0E0],"parents":[2147483647,0,0,2,2],"right_children":[2,-1,4,-1,-1],"split_conditions":[NaN,6.885259E-2,NaN,3.4809362E-2,-2.7816376E-2],"split_indices":[13,0,3,0,0],"split_type":[1,0,1,0,0],"sum_hessian":[6.0201042E1,1.3728905E1,4.6472137E1,1.1224436E1,3.52477E1],"tree_param":{"num_deleted":"0","num_feature":"20","num_nodes":"5","size_leaf_vector":"1"}},{"base_weights":[1.9063427E-1,4.4524595E-1,-2.5080377E-2,-2.5774915E-2,5.8402365E-1,1.0739952E-1,4.332329E-2],"categories":[0,1,2,3,4,5,6,7,8,9,10,0,1,2,3,4,5,6,7,8,9,10,11,12,13,14,15,16,17,18,19,20,21,22,23,24,25,26,27,28,29,30,31,32,33,34,35,36,37,38,39,40,41,42,43,44,45,46,47,48,49,50,51,52,53,54,55,56,57,58,59,60,61,62,63,64,65,66,67,68,69,70,71,72,73,74,75,76,77,78,79,80,81,82,83,84,85,86,87,88,89,90,91,92,93,94,95,96,97,98,99,100,101,102,103,104,105,106,107,108,109,110,111,112,113,114,115,116,117,118,119,120,121,122,123,